tree
version=v4
num_class=1
num_tree_per_iteration=1
label_index=0
max_feature_idx=4
objective=quantile
feature_names=Column_0 Column_1 Column_2 Column_3 Column_4
feature_infos=none [-1:1] [-1:1] [25.399999999999999:29.5] [25.399999999999999:29.5]
tree_sizes=547 582 583 583 583 836 837 836 754 753 755 756 831 835 927 928 1012 926 837 841 1012 838 835 843 838 1093 998 998 842 918 1009 921 1000 990 1084 995 919 919 1013 1079 922 1025 1010 1078 929 927 1003 1004 1002 1005 1005 1005 1092 1073 1076 1016 1017 1101 1100 1099 1088 1107 1106 1187 1098 1184 1274 1274 1273 1276 1350 1183 1272 1180 1184 1166 1248 1188 1177 1186 1260 1344 1363 1362 1358 1191 1275 1090 1275 1270 1270 1187 1186 1361 1238 1360 1253 1167 1103 1086 1182 1187 1273 1189 1258 1252 1175 1179 1176 1443 1442 1188 1422 1260 1341 1349 1262 1348 1268 1361 1265 1327 1343 1277 1343 1362 1350 1347 1358 1253 1365 1264 1250 1437 1437 1268 1099 1182 1259 1272 1188 1193 1356 1268 1269 1274 1353 1343 1246 1342 1352 1346 1352 1258 1344 1349 1329 1422 1187 1266 1360 1275 1264 1190 1249 1270 1355 1250 1359 1363 1359 1361 1165 1273 1278 1357 1444 1275 1277 1272 1252 1380 1283 1279 1279 1262 1191 1328 1356 1183 1259 1274 1434 1409 1245 1339 1274 1323 1338 1439 1189 1169 1433 1276 1358 1352 1260 1273 1276 1269 1280 1276 1282 1264 1196 1355 1280 1353 1283 1199 1277 1360 1282 1200 1205 1274 1355 1197 1183 1280 1187 1187 1199 1366 1113 1113 1203 1272 1256 1246 1355 1353 1253 1164 1171 1267 1335 1267 1422 1255 1191 1268 1348 1277 1187 1177 1276 1176 1191 1187 1095 1106 1195 1185 1190 1106 1099 1093 1090 1107 1022 1107 1107 1190 1347 1268 1340 1270 1262 1269 1272 1184 1103 1373 1200 1334 1270 1096 1340 1277 1193 1177 1272 1262 1179 1271 1276 1250 1270 1269 1281 1266 1371 1269 1358 1360 1335 1364 1321 1256 1271 1188 1346 1362 1279 1323 1262 1256 1265 1373 1265 1332 1276 1190 1262 1279 1282 1189 1264 1190 1269 1175 1269 1361 1346 1271 1253 1272 1456 1352 1277 1249 1173 1082 1085 1280 1166 1176 1250 1353 1278 1199 1193 1192 1193 1203 1203 1200 1267 1277 1172 1280 1165 1166 1091 1190 1180 1192 1358 1253 1264 1189 1186 1271 1334 1341 1255 1088 1173 1256 1254 1225 1261 1174 1181 1179 1266 1258 1267 1356 1350 1179 1184 1167 1262 1262 1261 1194 1355 1270 1268 1166 1269 1167 1173 1242 1197 1451 1277 1268 1359 1359 1235 1180 1262 1241 1364 1371 1230 1352 1361 1365 1359 1356 1432 1280 1270 1273 1195 1179 1174 1259 1258 1237 1165 1164 1174 1189 1172 1188 1175 1275 1251 1287 1275 1399 1357 1361 1200 1278 1368 1270 1284 1354 1350 1193 1190 1190 1190 1187 1281 1282 1286 1261 1282 1445 1277 1275 1281 1273 1180 1265 1261 1370 1269 1185 1348 1176 1082 1089 1079 1091 1206 1279 1097 1110 1275 1184 1282 1265 1237 1275 1252 1265 1434 1442 1251 1258 1278 1357 1255 1175 1157 1358 1356 1176 1264 1414 1195 1088 1195 1198 1195 1265 1192 1204 1184 1261 1375 1236 1204 1281 1357 1280 1288 1200 1277 1371 1264 1263 1181 1268 1176 1268 1175 1268 1358 1246 1277 1269 1184 1170 1361 1274 1356 1285 1283 1273 1277 1282 1284 1284 1288 1284 1363 1198 1285 1277 1284 1191 1281 1282 1268 1197 1199 1283 1194 1359 1196 1280 1284 1360 1284 1201 1288 1289 1193 1190 1194 1279 1280 1182 1282 1290 1199 1088 1193 1195 1195 1195 1199 1202 1200 1199 1278 1375 1177 1179 1282 1293

Tree=0
num_leaves=5
num_cat=0
split_feature=3 1 3 1
split_gain=2.43435 0.157479 0.480196 0.136099
threshold=28.550000000000004 1.0000000180025095e-35 27.450000000000003 0.68301270189221941
decision_type=2 2 2 2
left_child=1 -1 -3 -4
right_child=-2 2 3 -5
leaf_value=28.784499454498292 28.839499473571777 28.77574951082466 28.815999472498866 28.814499473571779
leaf_weight=163 38 96 39 23
leaf_count=163 38 96 39 23
internal_value=28.81 28.8086 28.8097 28.8131
internal_weight=359 321 158 62
internal_count=359 321 158 62
is_linear=0
shrinkage=1


Tree=1
num_leaves=5
num_cat=0
split_feature=3 1 3 1
split_gain=2.43435 0.157479 0.480196 0.136099
threshold=28.550000000000004 1.0000000180025095e-35 27.450000000000003 0.68301270189221941
decision_type=2 2 2 2
left_child=1 -1 -3 -4
right_child=-2 2 3 -5
leaf_value=-0.024225010871887245 0.028025007247924807 -0.032537457361837954 0.005700006228660826 0.0042750072479247336
leaf_weight=163 38 96 39 23
leaf_count=163 38 96 39 23
internal_value=6.96319e-06 -0.00140966 -0.000284811 0.00314516
internal_weight=359 321 158 62
internal_count=359 321 158 62
is_linear=0
shrinkage=0.05


Tree=2
num_leaves=5
num_cat=0
split_feature=3 1 3 1
split_gain=2.43435 0.157479 0.480196 0.136099
threshold=28.550000000000004 1.0000000180025095e-35 27.450000000000003 0.68301270189221941
decision_type=2 2 2 2
left_child=1 -1 -3 -4
right_child=-2 2 3 -5
leaf_value=-0.023013760328292856 0.026623756885528496 -0.030910584493746108 0.0054150059172277665 0.0040612568855284085
leaf_weight=163 38 96 39 23
leaf_count=163 38 96 39 23
internal_value=6.96319e-06 -0.00140966 -0.000284811 0.00314516
internal_weight=359 321 158 62
internal_count=359 321 158 62
is_linear=0
shrinkage=0.05


Tree=3
num_leaves=5
num_cat=0
split_feature=3 1 3 1
split_gain=2.43435 0.157479 0.480196 0.136099
threshold=28.550000000000004 1.0000000180025095e-35 27.450000000000003 0.68301270189221941
decision_type=2 2 2 2
left_child=1 -1 -3 -4
right_child=-2 2 3 -5
leaf_value=-0.021863072311878187 0.025292569041252124 -0.029365055269058794 0.0051442556213663337 0.0038581940412520058
leaf_weight=163 38 96 39 23
leaf_count=163 38 96 39 23
internal_value=6.96319e-06 -0.00140966 -0.000284811 0.00314516
internal_weight=359 321 158 62
internal_count=359 321 158 62
is_linear=0
shrinkage=0.05


Tree=4
num_leaves=5
num_cat=0
split_feature=3 1 3 1
split_gain=1.21012 0.157479 0.480196 0.136099
threshold=28.550000000000004 1.0000000180025095e-35 27.450000000000003 0.68301270189221941
decision_type=2 2 2 2
left_child=1 -1 -3 -4
right_child=-2 2 3 -5
leaf_value=-0.020769918696284331 0.024027940589189535 -0.027896802505605934 0.004887042840297973 0.0036652843391893342
leaf_weight=163 38 96 39 23
leaf_count=163 38 96 39 23
internal_value=-0.000410864 -0.00140966 -0.000284811 0.00314516
internal_weight=359 321 158 62
internal_count=359 321 158 62
is_linear=0
shrinkage=0.05


Tree=5
num_leaves=8
num_cat=0
split_feature=3 3 1 3 3 1 2
split_gain=1.13227 0.280939 0.498615 0.111477 0.0430199 0.128938 0.0326937
threshold=28.650000000000002 27.850000000000005 0.25000000000000011 28.350000000000005 27.450000000000003 0.25000000000000011 0.25000000000000017
decision_type=2 2 2 2 2 2 2
left_child=1 4 3 6 -1 -6 -3
right_child=-2 2 -4 -5 5 -7 -8
leaf_value=-0.027751961486234402 0.022826543559730086 -0.014731403687983757 0.016813710354450308 0.0004123547934481869 -0.016981405654917483 0.0034820164650581371 -0.019731422761470087
leaf_weight=151 30 46 26 20 44 21 21
leaf_count=151 30 46 26 20 44 21 21
internal_value=-0.000132313 -0.000980244 0.00103982 -0.000775863 -0.00203704 -0.000961539 -0.00175373
internal_weight=359 329 113 87 216 65 67
internal_count=359 329 113 87 216 65 67
is_linear=0
shrinkage=0.05


Tree=6
num_leaves=8
num_cat=0
split_feature=3 3 1 3 3 1 2
split_gain=1.13227 0.280939 0.498615 0.111477 0.0430199 0.128938 0.0326937
threshold=28.650000000000002 27.850000000000005 0.25000000000000011 28.350000000000005 27.450000000000003 0.25000000000000011 0.25000000000000017
decision_type=2 2 2 2 2 2 2
left_child=1 4 3 6 -1 -6 -3
right_child=-2 2 -4 -5 5 -7 -8
leaf_value=-0.026364363411922654 0.021685216381743547 -0.013994833503584658 0.015973024836727724 0.00039173705377584073 -0.016132335372171624 0.0033079156418052941 -0.018744851623396563
leaf_weight=151 30 46 26 20 44 21 21
leaf_count=151 30 46 26 20 44 21 21
internal_value=-0.000132313 -0.000980244 0.00103982 -0.000775863 -0.00203704 -0.000961539 -0.00175373
internal_weight=359 329 113 87 216 65 67
internal_count=359 329 113 87 216 65 67
is_linear=0
shrinkage=0.05


Tree=7
num_leaves=8
num_cat=0
split_feature=3 3 1 3 3 1 2
split_gain=1.13227 0.280939 0.498615 0.111477 0.0430199 0.128938 0.0326937
threshold=28.650000000000002 27.850000000000005 0.25000000000000011 28.350000000000005 27.450000000000003 0.25000000000000011 0.25000000000000017
decision_type=2 2 2 2 2 2 2
left_child=1 4 3 6 -1 -6 -3
right_child=-2 2 -4 -5 5 -7 -8
leaf_value=-0.025046145241326558 0.020600955562656332 -0.013295091828405426 0.015174373594891278 0.00037215020108709415 -0.015325718603563132 0.0031425198597150221 -0.01780760904222678
leaf_weight=151 30 46 26 20 44 21 21
leaf_count=151 30 46 26 20 44 21 21
internal_value=-0.000132313 -0.000980244 0.00103982 -0.000775863 -0.00203704 -0.000961539 -0.00175373
internal_weight=359 329 113 87 216 65 67
internal_count=359 329 113 87 216 65 67
is_linear=0
shrinkage=0.05


Tree=8
num_leaves=7
num_cat=0
split_feature=3 1 3 1 3 1
split_gain=0.84625 0.64191 0.163876 0.605419 0.0153812 0.0256098
threshold=28.350000000000005 1.0000000180025095e-35 27.450000000000003 0.25000000000000011 28.050000000000004 -0.6830127018922193
decision_type=2 2 2 2 2 2
left_child=2 -2 -1 4 -4 -6
right_child=1 -3 3 -5 5 -7
leaf_value=-0.023793837979260248 -0.0099499255503367641 0.019570907784523507 -0.014382943544217111 0.0042613213468446088 -0.01659470080124853 -0.012630337236985235
leaf_weight=151 26 32 70 39 20 21
leaf_count=151 26 32 70 39 20 21
internal_value=-0.000271588 0.00525862 -0.00133721 -0.000166667 -0.00204955 -0.00128049
internal_weight=359 58 301 150 111 41
internal_count=359 58 301 150 111 41
is_linear=0
shrinkage=0.05


Tree=9
num_leaves=7
num_cat=0
split_feature=3 1 3 1 3 1
split_gain=0.84625 0.64191 0.163876 0.605419 0.0153812 0.0256098
threshold=28.350000000000005 1.0000000180025095e-35 27.450000000000003 0.25000000000000011 28.050000000000004 -0.6830127018922193
decision_type=2 2 2 2 2 2
left_child=2 -2 -1 4 -4 -6
right_child=1 -3 3 -5 5 -7
leaf_value=-0.022604146080297306 -0.00945242927281989 0.018592362395297359 -0.013663796367006291 0.0040482552795023264 -0.015764965761186057 -0.011998820375135999
leaf_weight=151 26 32 70 39 20 21
leaf_count=151 26 32 70 39 20 21
internal_value=-0.000271588 0.00525862 -0.00133721 -0.000166667 -0.00204955 -0.00128049
internal_weight=359 58 301 150 111 41
internal_count=359 58 301 150 111 41
is_linear=0
shrinkage=0.05


Tree=10
num_leaves=7
num_cat=0
split_feature=3 1 3 1 3 1
split_gain=0.84625 0.64191 0.163876 0.605419 0.0153812 0.0256098
threshold=28.350000000000005 1.0000000180025095e-35 27.450000000000003 0.25000000000000011 28.050000000000004 -0.6830127018922193
decision_type=2 2 2 2 2 2
left_child=2 -2 -1 4 -4 -6
right_child=1 -3 3 -5 5 -7
leaf_value=-0.021473938776282432 -0.0089798078091789142 0.01766274427553256 -0.012980606548656019 0.0038458425155271578 -0.014976717473126778 -0.011398879356379156
leaf_weight=151 26 32 70 39 20 21
leaf_count=151 26 32 70 39 20 21
internal_value=-0.000271588 0.00525862 -0.00133721 -0.000166667 -0.00204955 -0.00128049
internal_weight=359 58 301 150 111 41
internal_count=359 58 301 150 111 41
is_linear=0
shrinkage=0.05


Tree=11
num_leaves=7
num_cat=0
split_feature=3 1 3 1 3 1
split_gain=0.84625 0.64191 0.163876 0.605419 0.0153812 0.0256098
threshold=28.350000000000005 1.0000000180025095e-35 27.450000000000003 0.25000000000000011 28.050000000000004 -0.6830127018922193
decision_type=2 2 2 2 2 2
left_child=2 -2 -1 4 -4 -6
right_child=1 -3 3 -5 5 -7
leaf_value=-0.020400241837468337 -0.0085308174187199333 0.016779607061755897 -0.012331576221223243 0.0036535503897507748 -0.014227881599470516 -0.010828935388560269
leaf_weight=151 26 32 70 39 20 21
leaf_count=151 26 32 70 39 20 21
internal_value=-0.000271588 0.00525862 -0.00133721 -0.000166667 -0.00204955 -0.00128049
internal_weight=359 58 301 150 111 41
internal_count=359 58 301 150 111 41
is_linear=0
shrinkage=0.05


Tree=12
num_leaves=8
num_cat=0
split_feature=3 4 1 3 4 4 4
split_gain=0.763914 0.199243 0.248751 0.269842 0.0892857 0.0887143 0.18544
threshold=28.550000000000004 27.250000000000004 0.25000000000000011 27.650000000000002 28.150000000000002 27.850000000000005 27.550000000000004
decision_type=2 2 2 2 2 2 2
left_child=1 -1 5 4 -4 6 -3
right_child=-2 2 3 -5 -6 -7 -8
leaf_value=-0.037105842400905413 0.015940626708668051 -0.029723579628841035 0.00061975118091872616 0.0098505224055133438 -0.018880234871581438 -0.0060347936645522788 0.0015510289841058288
leaf_weight=111 38 30 36 29 20 69 26
leaf_count=111 38 30 36 29 20 69 26
internal_value=6.96319e-06 -0.000786605 0.000119047 0.00220588 0.000178571 -0.0013 0.000178571
internal_weight=359 321 210 85 56 125 56
internal_count=359 321 210 85 56 125 56
is_linear=0
shrinkage=0.05


Tree=13
num_leaves=8
num_cat=0
split_feature=3 4 4 1 3 1 1
split_gain=0.86211 0.109381 0.174319 0.163913 0.156961 0.0175202 5.55112e-17
threshold=28.550000000000004 27.550000000000004 27.750000000000004 0.25000000000000011 27.650000000000002 0.68301270189221941 0.25000000000000011
decision_type=2 2 2 2 2 2 2
left_child=1 5 -3 -4 -5 6 -1
right_child=-2 2 3 4 -6 -7 -8
leaf_value=-0.032504499022518465 0.015143595373234576 0.001700103513654069 -0.0050880295208767488 -0.011753614588589421 0.013823750959912654 -0.014583198630918377 -0.030785120027944198
leaf_weight=88 38 25 80 35 22 42 29
leaf_count=88 38 25 80 35 22 42 29
internal_value=-0.000410864 -0.00125389 -0.000339507 -0.00104015 0.00100877 -0.00218554 -0.0025
internal_weight=359 321 162 137 57 159 117
internal_count=359 321 162 137 57 159 117
is_linear=0
shrinkage=0.05


Tree=14
num_leaves=9
num_cat=0
split_feature=3 4 1 3 4 3 4 4
split_gain=0.710514 0.214286 0.194762 0.199189 0.0892857 0.0778451 0.0405594 0.0897436
threshold=28.750000000000004 27.250000000000004 0.25000000000000011 27.650000000000002 28.150000000000002 28.350000000000005 27.850000000000005 27.550000000000004
decision_type=2 2 2 2 2 2 2 2
left_child=1 -1 5 4 -4 6 7 -3
right_child=-2 2 3 -5 -6 -7 -8 -9
leaf_value=-0.033839669948494466 0.014386415604572812 -0.026339601897614185 0.00067192964180166437 0.0086546412069656489 -0.017348542398572954 -0.0001149176262600397 -0.0086542253251561015 -0.0019794573621623505
leaf_weight=112 23 28 36 33 20 25 58 24
leaf_count=112 23 28 36 33 20 25 58 24
internal_value=-0.000132313 -0.000714286 0.000178571 0.00199438 0.000178571 -0.00101852 -0.00159091 -0.000576924
internal_weight=359 336 224 89 56 135 110 52
internal_count=359 336 224 89 56 135 110 52
is_linear=0
shrinkage=0.05


Tree=15
num_leaves=9
num_cat=0
split_feature=3 4 1 3 4 3 4 4
split_gain=0.710514 0.214286 0.194762 0.199189 0.0892857 0.0778451 0.0405594 0.0897436
threshold=28.750000000000004 27.250000000000004 0.25000000000000011 27.650000000000002 28.150000000000002 28.350000000000005 27.850000000000005 27.550000000000004
decision_type=2 2 2 2 2 2 2 2
left_child=1 -1 5 4 -4 6 7 -3
right_child=-2 2 3 -5 -6 -7 -8 -9
leaf_value=-0.032147686451069704 0.013667094824344162 -0.025022621802733458 0.00063833315971163849 0.0082219091466173202 -0.016481115278644331 -0.00010917174494707121 -0.0082215140588983108 -0.0018804844940543014
leaf_weight=112 23 28 36 33 20 25 58 24
leaf_count=112 23 28 36 33 20 25 58 24
internal_value=-0.000132313 -0.000714286 0.000178571 0.00199438 0.000178571 -0.00101852 -0.00159091 -0.000576924
internal_weight=359 336 224 89 56 135 110 52
internal_count=359 336 224 89 56 135 110 52
is_linear=0
shrinkage=0.05


Tree=16
num_leaves=10
num_cat=0
split_feature=3 4 4 2 1 4 3 1 1
split_gain=0.733984 0.224051 0.113046 0.184708 0.15492 0.0984413 0.0238095 0.0176746 5.55112e-17
threshold=28.750000000000004 27.550000000000004 27.750000000000004 -0.24999999999999994 0.25000000000000011 28.150000000000002 27.750000000000004 0.68301270189221941 0.25000000000000011
decision_type=2 2 2 2 2 2 2 2 2
left_child=1 7 -3 4 5 -4 -6 8 -1
right_child=-2 2 3 -5 6 -7 -8 -9 -10
leaf_value=-0.028025434794215001 0.012983740083126883 0.0016109592628554582 -1.7890679599053255e-05 -0.013031070858921813 0.00016740635348633855 -0.0027979593507510528 0.012926701856945333 -0.013751306146832447 -0.027292449713740532
leaf_weight=92 23 25 23 53 21 30 21 42 29
leaf_count=92 23 25 23 53 21 30 21 42 29
internal_value=-0.000271588 -0.000863096 0.000390173 -0.000135136 0.00118421 -0.000613208 0.00345238 -0.00219325 -0.0025
internal_weight=359 336 173 148 95 53 42 163 121
internal_count=359 336 173 148 95 53 42 163 121
is_linear=0
shrinkage=0.05


Tree=17
num_leaves=9
num_cat=0
split_feature=3 4 1 3 4 3 4 4
split_gain=0.710514 0.214286 0.194762 0.199189 0.0892857 0.0778451 0.0405594 0.0897436
threshold=28.750000000000004 27.250000000000004 0.25000000000000011 27.650000000000002 28.150000000000002 28.350000000000005 27.850000000000005 27.550000000000004
decision_type=2 2 2 2 2 2 2 2
left_child=1 -1 5 4 -4 6 7 -3
right_child=-2 2 3 -5 -6 -7 -8 -9
leaf_value=-0.029139030388805467 0.012334553078970601 -0.022370218972885974 0.00054391291983561904 0.0071644785964392792 -0.01503850201532584 -7.501789723919046e-05 -0.0077886934013916805 -0.0017977821322700727
leaf_weight=112 23 28 36 33 20 25 58 24
leaf_count=112 23 28 36 33 20 25 58 24
internal_value=-0.000132313 -0.000714286 0.000178571 0.00199438 0.000178571 -0.00101852 -0.00159091 -0.000576924
internal_weight=359 336 224 89 56 135 110 52
internal_count=359 336 224 89 56 135 110 52
is_linear=0
shrinkage=0.05


Tree=18
num_leaves=8
num_cat=0
split_feature=3 4 1 3 4 4 4
split_gain=0.710514 0.214286 0.160714 0.117215 0.0832792 0.211364 0.0672804
threshold=28.750000000000004 27.250000000000004 1.0000000180025095e-35 27.150000000000002 27.850000000000005 27.550000000000004 28.150000000000002
decision_type=2 2 2 2 2 2 2
left_child=1 -1 4 -4 5 -3 -5
right_child=-2 2 3 6 -6 -7 -8
leaf_value=-0.027682078869365214 0.011717825425022 -0.02308214327758018 -0.011017571740379479 0.00018305552626075896 -0.0084972312866087307 0.0016279813330417597 0.0033956647826845197
leaf_weight=112 23 31 33 38 57 24 41
leaf_count=112 23 31 33 38 57 24 41
internal_value=-0.000132313 -0.000714286 0.000178571 0.00151786 -0.00116071 0.000227272 0.00256329
internal_weight=359 336 224 112 112 55 79
internal_count=359 336 224 112 112 55 79
is_linear=0
shrinkage=0.05


Tree=19
num_leaves=8
num_cat=0
split_feature=3 4 1 3 4 4 4
split_gain=0.710514 0.214286 0.160714 0.117215 0.0832792 0.211364 0.0672804
threshold=28.750000000000004 27.250000000000004 1.0000000180025095e-35 27.150000000000002 27.850000000000005 27.550000000000004 28.150000000000002
decision_type=2 2 2 2 2 2 2
left_child=1 -1 4 -4 5 -3 -5
right_child=-2 2 3 6 -6 -7 -8
leaf_value=-0.026297974925896972 0.011131934153770829 -0.021928036113701154 -0.010466693153360558 0.00017390274994772174 -0.0080723697222783389 0.0015465822663897272 0.0032258815435503504
leaf_weight=112 23 31 33 38 57 24 41
leaf_count=112 23 31 33 38 57 24 41
internal_value=-0.000132313 -0.000714286 0.000178571 0.00151786 -0.00116071 0.000227272 0.00256329
internal_weight=359 336 224 112 112 55 79
internal_count=359 336 224 112 112 55 79
is_linear=0
shrinkage=0.05


Tree=20
num_leaves=10
num_cat=0
split_feature=3 4 2 4 4 3 1 3 1
split_gain=0.733984 0.224051 0.12396 0.155161 0.0517439 0.0286797 0.0176746 0.0175325 5.55112e-17
threshold=28.750000000000004 27.550000000000004 -0.68301270189221952 27.850000000000005 28.450000000000003 27.250000000000004 0.68301270189221941 28.150000000000002 0.25000000000000011
decision_type=2 2 2 2 2 2 2 2 2
left_child=1 6 4 -4 7 -5 8 -3 -1
right_child=-2 2 3 5 -6 -7 -8 -9 -10
leaf_value=-0.022480872672247378 0.010575337446082323 -0.0049104564363105811 0.00087213190205756542 -0.0057403489801029148 0.01073841749002131 -0.0074718083787173517 -0.0091854225666279515 -3.2134062343608324e-05 -0.02488280146114083
leaf_weight=92 23 20 31 24 23 53 42 22 29
leaf_count=92 23 20 31 24 23 53 42 22 29
internal_value=-0.000271588 -0.000863096 0.000390173 -0.000648149 0.00211538 -0.00185065 -0.00219325 0.00107143 -0.0025
internal_weight=359 336 173 108 65 77 163 42 121
internal_count=359 336 173 108 65 77 163 42 121
is_linear=0
shrinkage=0.05


Tree=21
num_leaves=8
num_cat=0
split_feature=3 4 1 3 4 4 4
split_gain=0.687426 0.251488 0.21875 0.162762 0.141564 0.0832792 0.211364
threshold=28.750000000000004 27.250000000000004 1.0000000180025095e-35 27.150000000000002 28.150000000000002 27.850000000000005 27.550000000000004
decision_type=2 2 2 2 2 2 2
left_child=1 -1 5 -4 -5 6 -3
right_child=-2 2 3 4 -6 -7 -8
leaf_value=-0.023911748354913224 0.010046570573778269 -0.019707590674403818 -0.0096563410466872501 0.00059020385416312746 0.0025276668486617663 -0.0076183614721391435 0.0014640778490578371
leaf_weight=112 23 31 33 38 41 57 24
leaf_count=112 23 31 33 38 41 57 24
internal_value=6.96319e-06 -0.000565477 0.000401785 0.00196429 0.0031962 -0.00116071 0.000227272
internal_weight=359 336 224 112 79 112 55
internal_count=359 336 224 112 79 112 55
is_linear=0
shrinkage=0.05


Tree=22
num_leaves=8
num_cat=0
split_feature=3 4 1 3 4 4 4
split_gain=0.411132 0.214286 0.194762 0.199189 0.110053 0.203861 0.0892857
threshold=28.750000000000004 27.250000000000004 0.25000000000000011 27.650000000000002 27.950000000000003 27.550000000000004 28.150000000000002
decision_type=2 2 2 2 2 2 2
left_child=1 -1 4 6 5 -3 -4
right_child=-2 2 3 -5 -6 -7 -8
leaf_value=-0.02271616093716761 0.0095442420450893919 -0.017153214614951791 0.0014472495715854832 0.005811873133371533 -0.0051979366168404175 0.00049759388737016883 -0.012442529168533036
leaf_weight=112 23 33 36 33 65 37 20
leaf_count=112 23 33 36 33 65 37 20
internal_value=-0.000271588 -0.000714286 0.000178571 0.00199438 -0.00101852 0.000357142 0.000178571
internal_weight=359 336 224 89 135 70 56
internal_count=359 336 224 89 135 70 56
is_linear=0
shrinkage=0.05


Tree=23
num_leaves=8
num_cat=0
split_feature=3 4 1 3 4 4 4
split_gain=0.411132 0.214286 0.160714 0.117215 0.0832792 0.211364 0.0672804
threshold=28.750000000000004 27.250000000000004 1.0000000180025095e-35 27.150000000000002 27.850000000000005 27.550000000000004 28.150000000000002
decision_type=2 2 2 2 2 2 2
left_child=1 -1 4 -4 5 -3 -5
right_child=-2 2 3 6 -6 -7 -8
leaf_value=-0.021580352890309188 0.0090670299428349931 -0.017864550409936106 -0.0085513975359264027 0.00039017368983527132 -0.0070590179810852667 0.0013659942622364413 0.0021106901120544934
leaf_weight=112 23 31 33 38 57 24 41
leaf_count=112 23 31 33 38 57 24 41
internal_value=-0.000271588 -0.000714286 0.000178571 0.00151786 -0.00116071 0.000227272 0.00256329
internal_weight=359 336 224 112 112 55 79
internal_count=359 336 224 112 112 55 79
is_linear=0
shrinkage=0.05


Tree=24
num_leaves=8
num_cat=0
split_feature=3 4 1 3 4 4 4
split_gain=0.411132 0.214286 0.160714 0.117215 0.0832792 0.211364 0.0672804
threshold=28.750000000000004 27.250000000000004 1.0000000180025095e-35 27.150000000000002 27.850000000000005 27.550000000000004 28.150000000000002
decision_type=2 2 2 2 2 2 2
left_child=1 -1 4 -4 5 -3 -5
right_child=-2 2 3 6 -6 -7 -8
leaf_value=-0.020501335245793645 0.0086136784456932961 -0.016971322889439321 -0.008123827659130162 0.00037066500534359541 -0.006706067082031017 0.0012976945491246 0.0020051556064517597
leaf_weight=112 23 31 33 38 57 24 41
leaf_count=112 23 31 33 38 57 24 41
internal_value=-0.000271588 -0.000714286 0.000178571 0.00151786 -0.00116071 0.000227272 0.00256329
internal_weight=359 336 224 112 112 55 79
internal_count=359 336 224 112 112 55 79
is_linear=0
shrinkage=0.05


Tree=25
num_leaves=11
num_cat=0
split_feature=3 1 4 2 4 1 4 3 4 3
split_gain=0.450878 0.589634 0.0883294 0.149874 0.0650564 0.0996755 0.151438 0.107375 0.0603679 0.025
threshold=27.850000000000005 0.25000000000000011 28.350000000000005 -0.24999999999999994 27.250000000000004 1.0000000180025095e-35 28.150000000000002 27.150000000000002 27.850000000000005 28.150000000000002
decision_type=2 2 2 2 2 2 2 2 2 2
left_child=4 2 3 8 -1 -6 7 -7 -2 -5
right_child=1 -3 -4 9 5 6 -8 -9 -10 -11
leaf_value=-0.028758139357739944 0.00064816164099055617 0.011394448980795018 -0.0063798329054964133 -0.0085250065810170556 -0.011596563740548928 -0.016319171792364355 -0.0066103546138852739 0.0013338629098858198 -6.384104188470389e-05 -0.016271338275069245
leaf_weight=101 20 34 23 20 48 21 26 20 26 20
leaf_count=101 20 34 23 20 48 21 26 20 26 20
internal_value=-0.000132313 0.00204545 0.000252293 0.000988371 -0.00157407 -0.00076087 0.000485074 0.00237805 0.00293478 -0.00125
internal_weight=359 143 109 86 216 115 67 41 46 40
internal_count=359 143 109 86 216 115 67 41 46 40
is_linear=0
shrinkage=0.05


Tree=26
num_leaves=10
num_cat=0
split_feature=3 2 3 4 4 4 4 1 2
split_gain=0.411132 0.261457 0.108944 0.0593305 0.0688314 0.055102 0.119597 0.0508093 0.0344612
threshold=28.750000000000004 -0.5 27.850000000000005 27.250000000000004 27.650000000000002 28.450000000000003 27.950000000000003 0.68301270189221941 -0.24999999999999994
decision_type=2 2 2 2 2 2 2 2 2
left_child=1 2 -1 -3 7 6 -4 -5 -6
right_child=-2 3 5 4 8 -7 -8 -9 -10
leaf_value=-0.0047871585957902762 0.0076132720743688157 -0.027128391829720763 0.00054703977673245779 -0.015676811202159004 -0.00026828317179285378 0.0098616529093967786 -0.00065395823004266477 0.0034363582331179048 -0.0092623225053235694
leaf_weight=33 23 108 22 29 21 21 27 20 55
leaf_count=33 23 108 22 29 21 21 27 20 55
internal_value=-0.000271588 -0.000714286 0.00138349 -0.00164163 -0.000900001 0.0025 0.00158163 0.000561224 -0.00184211
internal_weight=359 336 103 233 125 70 49 49 76
internal_count=359 336 103 233 125 70 49 49 76
is_linear=0
shrinkage=0.05


Tree=27
num_leaves=10
num_cat=0
split_feature=3 2 3 4 4 4 4 1 2
split_gain=0.411132 0.261457 0.108944 0.0593305 0.0688314 0.055102 0.119597 0.0508093 0.0344612
threshold=28.750000000000004 -0.5 27.850000000000005 27.250000000000004 27.650000000000002 28.450000000000003 27.950000000000003 0.68301270189221941 -0.24999999999999994
decision_type=2 2 2 2 2 2 2 2 2
left_child=1 2 -1 -3 7 6 -4 -5 -6
right_child=-2 3 5 4 8 -7 -8 -9 -10
leaf_value=-0.0045478006660008129 0.0072326084706503483 -0.025771972238234759 0.00051968778789575874 -0.014892970642051064 -0.00025486901320325627 0.0093685702639269442 -0.00062126031854053173 0.0032645403214620686 -0.0087992063800573089
leaf_weight=33 23 108 22 29 21 21 27 20 55
leaf_count=33 23 108 22 29 21 21 27 20 55
internal_value=-0.000271588 -0.000714286 0.00138349 -0.00164163 -0.000900001 0.0025 0.00158163 0.000561224 -0.00184211
internal_weight=359 336 103 233 125 70 49 49 76
internal_count=359 336 103 233 125 70 49 49 76
is_linear=0
shrinkage=0.05


Tree=28
num_leaves=8
num_cat=0
split_feature=3 1 4 1 3 3 3
split_gain=0.430711 0.318634 0.124218 0.0878033 0.0962644 0.0571604 0.0506035
threshold=28.350000000000005 1.0000000180025095e-35 27.250000000000004 1.0000000180025095e-35 28.050000000000004 27.150000000000002 27.650000000000002
decision_type=2 2 2 2 2 2 2
left_child=2 -2 -1 4 -4 -5 -7
right_child=1 -3 3 5 -6 6 -8
leaf_value=-0.017716441879938549 -0.0069935862825995544 0.00687097804711776 -0.0064812716970854061 -0.0068348093006999101 -0.0021959731156839589 0.0010126191356695309 0.002500551788645776
leaf_weight=111 26 32 67 33 29 26 35
leaf_count=111 26 32 67 33 29 26 35
internal_value=-0.000410864 0.00353448 -0.0011711 -0.000394737 -0.00145833 0.000691489 0.00159836
internal_weight=359 58 301 190 96 94 61
internal_count=359 58 301 190 96 94 61
is_linear=0
shrinkage=0.05


Tree=29
num_leaves=9
num_cat=0
split_feature=3 2 4 1 4 4 1 2
split_gain=0.42903 0.184279 0.113768 0.258951 0.0593305 0.0688314 0.0508093 0.0344612
threshold=28.750000000000004 -0.5 27.950000000000003 0.25000000000000011 27.250000000000004 27.650000000000002 0.68301270189221941 -0.24999999999999994
decision_type=2 2 2 2 2 2 2 2
left_child=1 2 -1 -4 -3 6 -6 -7
right_child=-2 4 3 -5 5 7 -8 -9
leaf_value=0.00054449327246701082 0.0065274291447618539 -0.023597551532326129 -0.0017251352381794387 0.0079006139447532868 -0.013909964568240849 -0.00036715304068916959 0.0033416605383539953 -0.008185168064478025
leaf_weight=35 23 108 45 23 29 21 20 55
leaf_count=35 23 108 45 23 29 21 20 55
internal_value=-0.000410864 -0.000863096 0.000898058 -0.000294118 -0.00164163 -0.000900001 0.000561224 -0.00184211
internal_weight=359 336 103 68 233 125 49 76
internal_count=359 336 103 68 233 125 49 76
is_linear=0
shrinkage=0.05


Tree=30
num_leaves=10
num_cat=0
split_feature=3 2 4 3 4 1 4 4 4
split_gain=0.411132 0.233652 0.121878 0.100196 0.16 0.0738916 0.0479343 0.117466 0.0266284
threshold=28.750000000000004 -0.24999999999999994 28.150000000000002 28.150000000000002 27.750000000000004 0.25000000000000011 27.250000000000004 27.650000000000002 27.450000000000003
decision_type=2 2 2 2 2 2 2 2 2
left_child=1 2 3 4 -1 -4 -3 8 -8
right_child=-2 6 5 -5 -6 -7 7 -9 -10
leaf_value=-0.014836960396865162 0.0062010576875238151 -0.022609514515841946 -0.0024847738023301533 0.00041200825356379187 0.00043944801251463803 0.005319332836402047 -0.0021064620376407511 -0.0077759096612540803 0.0032608917205610697
leaf_weight=20 23 107 30 28 25 28 22 55 21
leaf_count=20 23 107 30 28 25 28 22 55 21
internal_value=-0.000271588 -0.000714286 0.000935114 0.00229452 0.000833333 -0.000775863 -0.00176829 -0.000969388 0.000988371
internal_weight=359 336 131 73 45 58 205 98 43
internal_count=359 336 131 73 45 58 205 98 43
is_linear=0
shrinkage=0.05


Tree=31
num_leaves=9
num_cat=0
split_feature=3 2 4 3 1 4 4 1
split_gain=0.411132 0.138027 0.114146 0.165189 0.144643 0.056405 0.115546 0.15
threshold=28.750000000000004 -0.24999999999999994 27.950000000000003 27.850000000000005 0.25000000000000011 27.050000000000004 27.650000000000002 0.25000000000000011
decision_type=2 2 2 2 2 2 2 2
left_child=1 2 3 -1 -4 -3 7 -7
right_child=-2 5 4 -5 -6 6 -8 -9
leaf_value=-0.0019445624373789277 0.0058910048031476595 -0.022161040774412718 -0.0015438820809932422 0.00050052698927070458 0.003211120072180561 -0.014922537835485555 -0.0073871141781913152 0.0027521171073937676
leaf_weight=25 23 86 45 26 35 40 55 24
leaf_count=25 23 86 45 26 35 40 55 24
internal_value=-0.000271588 -0.000714286 0.000553435 0.00240196 -0.000625001 -0.00152439 -0.000819328 0.000624999
internal_weight=359 336 131 51 80 205 119 64
internal_count=359 336 131 51 80 205 119 64
is_linear=0
shrinkage=0.05


Tree=32
num_leaves=10
num_cat=0
split_feature=3 2 4 3 4 1 4 4 1
split_gain=0.393614 0.193393 0.121878 0.100196 0.16 0.0738916 0.056405 0.115546 0.15
threshold=28.750000000000004 -0.24999999999999994 28.150000000000002 28.150000000000002 27.750000000000004 0.25000000000000011 27.050000000000004 27.650000000000002 0.25000000000000011
decision_type=2 2 2 2 2 2 2 2 2
left_child=1 2 3 4 -1 -4 -3 8 -8
right_child=-2 6 5 -5 -6 -7 7 -9 -10
leaf_value=-0.01411402603060908 0.0055964545629903391 -0.02105298873569203 -0.0022833410081639304 0.00038631517952663111 0.00049025280451414014 0.00489281019097303 -0.014176410943711311 -0.0070177584692818129 0.0026145112520240183
leaf_weight=20 23 86 30 28 25 28 40 55 24
leaf_count=20 23 86 30 28 25 28 40 55 24
internal_value=-0.000132313 -0.000565477 0.000935114 0.00229452 0.000833333 -0.000775863 -0.00152439 -0.000819328 0.000624999
internal_weight=359 336 131 73 45 58 205 119 64
internal_count=359 336 131 73 45 58 205 119 64
is_linear=0
shrinkage=0.05


Tree=33
num_leaves=10
num_cat=0
split_feature=3 4 1 3 4 3 4 3 3
split_gain=0.393614 0.181234 0.112195 0.145702 0.207438 0.1049 0.238704 0.1 0.025
threshold=28.750000000000004 27.050000000000004 1.0000000180025095e-35 27.150000000000002 28.150000000000002 27.850000000000005 27.850000000000005 27.750000000000004 26.650000000000002
decision_type=2 2 2 2 2 2 2 2 2
left_child=1 -1 5 8 7 -3 -7 -5 -4
right_child=-2 2 3 4 -6 6 -8 -9 -10
leaf_value=-0.019141253682686519 0.0053166318348408133 -0.0069748014787437626 -0.014416324234187006 0.001028882613894104 -0.00022624323705247676 0.00091372976706116042 -0.0060852137687345438 6.0376528806729531e-05 -0.008045409694156366
leaf_weight=89 23 57 20 20 41 34 35 20 20
leaf_count=89 23 57 20 20 41 34 35 20 20
internal_value=-0.000132313 -0.000565477 0.000131578 0.00121901 0.00243827 -0.000912699 0.00039855 0.005 -0.00125
internal_weight=359 336 247 121 81 126 69 40 40
internal_count=359 336 247 121 81 126 69 40 40
is_linear=0
shrinkage=0.05


Tree=34
num_leaves=11
num_cat=0
split_feature=3 1 1 3 4 4 2 4 4 3
split_gain=0.395052 0.589634 0.0943433 0.202574 0.1 0.0883294 0.149874 0.0603679 0.0327963 0.025
threshold=27.850000000000005 0.25000000000000011 1.0000000180025095e-35 27.150000000000002 27.950000000000003 28.350000000000005 -0.24999999999999994 27.850000000000005 27.550000000000004 28.150000000000002
decision_type=2 2 2 2 2 2 2 2 2 2
left_child=2 5 -1 8 -5 6 7 -2 -4 -8
right_child=1 -3 3 4 -6 -7 9 -9 -10 -11
leaf_value=-0.015870532600832429 0.00054635614198413171 0.0085359382714486325 -0.021293934251629006 0.00060346188127522599 -0.0036713255640177045 -0.007119791044893492 -0.0050225429306200555 -0.00014675778451800857 -0.0019803420033936143 -0.014154751666205605
leaf_weight=97 20 34 57 20 20 23 20 26 22 20
leaf_count=97 20 34 57 20 20 23 20 26 22 20
internal_value=6.96319e-06 0.00204545 -0.00134259 -0.00039916 0.0025 0.000252293 0.000988371 0.00293478 -0.00186709 -0.00125
internal_weight=359 143 216 119 40 109 86 46 79 40
internal_count=359 143 216 119 40 109 86 46 79 40
is_linear=0
shrinkage=0.05


Tree=35
num_leaves=10
num_cat=0
split_feature=3 1 4 4 1 3 4 4 4
split_gain=0.395052 0.360953 0.170865 0.0968864 0.0943433 0.202574 0.1 0.0909091 0.0327963
threshold=27.850000000000005 1.0000000180025095e-35 27.850000000000005 28.550000000000004 1.0000000180025095e-35 27.150000000000002 27.950000000000003 27.450000000000003 27.550000000000004
decision_type=2 2 2 2 2 2 2 2 2
left_child=4 2 7 -3 -1 8 -7 -2 -6
right_child=1 3 -4 -5 5 6 -8 -9 -10
leaf_value=-0.015077005970790808 -0.013450607206804891 0.0051240029718897517 -0.0057085865786746133 0.0046240018809986152 -0.02022923753904747 0.00057328878721141371 -0.0034877592858168407 0.0014673916603022579 -0.0018813249032239958
leaf_weight=97 22 39 39 21 57 20 20 22 22
leaf_count=97 22 39 39 21 57 20 20 22 22
internal_value=6.96319e-06 0.00204545 -9.0362e-05 0.005 -0.00134259 -0.00039916 0.0025 0.00204545 -0.00186709
internal_weight=359 143 83 60 216 119 40 44 79
internal_count=359 143 83 60 216 119 40 44 79
is_linear=0
shrinkage=0.05


Tree=36
num_leaves=9
num_cat=0
split_feature=3 2 4 3 1 4 4 1
split_gain=0.411132 0.138027 0.114146 0.165189 0.144643 0.056405 0.115546 0.15
threshold=28.750000000000004 -0.24999999999999994 27.950000000000003 27.850000000000005 0.25000000000000011 27.050000000000004 27.650000000000002 0.25000000000000011
decision_type=2 2 2 2 2 2 2 2
left_child=1 2 3 -1 -4 -3 7 -7
right_child=-2 5 4 -5 -6 6 -8 -9
leaf_value=-0.0014348053152248999 0.0043903032234653677 -0.017142349107369319 -0.0011910724957587843 0.0009199015775500412 0.0029805651676372553 -0.012626914028394089 -0.005826053381916222 0.002524384842039333
leaf_weight=25 23 86 45 26 35 40 55 24
leaf_count=25 23 86 45 26 35 40 55 24
internal_value=-0.000271588 -0.000714286 0.000553435 0.00240196 -0.000625001 -0.00152439 -0.000819328 0.000624999
internal_weight=359 336 131 51 80 205 119 64
internal_count=359 336 131 51 80 205 119 64
is_linear=0
shrinkage=0.05


Tree=37
num_leaves=9
num_cat=0
split_feature=3 2 4 3 1 4 4 1
split_gain=0.411132 0.138027 0.114146 0.165189 0.144643 0.056405 0.115546 0.15
threshold=28.750000000000004 -0.24999999999999994 27.950000000000003 27.850000000000005 0.25000000000000011 27.050000000000004 27.650000000000002 0.25000000000000011
decision_type=2 2 2 2 2 2 2 2
left_child=1 2 3 -1 -4 -3 7 -7
right_child=-2 5 4 -5 -6 6 -8 -9
leaf_value=-0.0013630650494637 0.0041707880622920334 -0.016285231652000805 -0.0011315188709709173 0.00087390649867253797 0.0028315369092554439 -0.011995568326974326 -0.0055347507128203945 0.0023981655999373228
leaf_weight=25 23 86 45 26 35 40 55 24
leaf_count=25 23 86 45 26 35 40 55 24
internal_value=-0.000271588 -0.000714286 0.000553435 0.00240196 -0.000625001 -0.00152439 -0.000819328 0.000624999
internal_weight=359 336 131 51 80 205 119 64
internal_count=359 336 131 51 80 205 119 64
is_linear=0
shrinkage=0.05


Tree=38
num_leaves=10
num_cat=0
split_feature=3 1 3 1 3 4 4 4 1
split_gain=0.33297 0.577584 0.140562 0.138303 0.250027 0.114219 0.0421037 0.0327963 5.55112e-17
threshold=28.050000000000004 0.25000000000000011 28.450000000000003 1.0000000180025095e-35 27.150000000000002 27.850000000000005 27.950000000000003 27.550000000000004 -0.24999999999999994
decision_type=2 2 2 2 2 2 2 2 2
left_child=3 2 5 8 7 -2 -6 -5 -1
right_child=1 -3 -4 4 6 -7 -8 -9 -10
leaf_value=-0.0039129570694653856 0.0013583354534349792 0.0071985094322156024 -0.00062575771461150593 -0.019080403152254198 0.00054109761334254574 -0.0040222278361118574 -0.00015360303223991396 -0.0020349312815254881 -0.033902399187332032
leaf_weight=91 22 28 35 57 22 26 26 22 30
leaf_count=91 22 28 35 57 22 26 26 22 30
internal_value=-0.000271588 0.0020045 -9.0362e-05 -0.00129032 -0.000137796 0.00166667 0.00270833 -0.00186709 -0.0025
internal_weight=359 111 83 248 127 48 48 79 121
internal_count=359 111 83 248 127 48 48 79 121
is_linear=0
shrinkage=0.05


Tree=39
num_leaves=11
num_cat=0
split_feature=4 1 3 4 2 4 3 3 3 3
split_gain=0.206592 0.181481 0.181335 0.0976977 0.194696 0.0673684 0.16 0.0568116 0.0303922 0.025
threshold=27.050000000000004 1.0000000180025095e-35 27.150000000000002 27.850000000000005 -0.24999999999999994 28.150000000000002 27.750000000000004 28.250000000000004 27.950000000000003 26.650000000000002
decision_type=2 2 2 2 2 2 2 2 2 2
left_child=-1 3 9 4 -2 6 -4 -7 -6 -3
right_child=1 2 5 -5 8 7 -8 -9 -10 -11
leaf_value=-0.013659716845294767 0.00089869643832806996 -0.013689059347901995 0.0010321154043316926 -0.0033869819728378141 -0.026234234941086166 0.0048061466015791449 0.00285269113225858 -0.00010227157995702794 -0.0078214353336124205 -0.0068232011662527209
leaf_weight=89 23 20 20 61 31 27 25 23 20 20
leaf_count=89 23 20 20 61 31 27 25 23 20 20
internal_value=-0.000410864 0.000277777 0.00157407 -0.00101852 0.000202702 0.00276316 0.00416667 0.0015 -0.00151961 -0.00125
internal_weight=359 270 135 135 74 95 45 50 51 40
internal_count=359 270 135 135 74 95 45 50 51 40
is_linear=0
shrinkage=0.05


Tree=40
num_leaves=9
num_cat=0
split_feature=3 2 4 3 1 4 4 1
split_gain=0.193135 0.138027 0.114146 0.165189 0.144643 0.056405 0.115546 0.15
threshold=28.750000000000004 -0.24999999999999994 27.950000000000003 27.850000000000005 0.25000000000000011 27.050000000000004 27.650000000000002 0.25000000000000011
decision_type=2 2 2 2 2 2 2 2
left_child=1 2 3 -1 -4 -3 7 -7
right_child=-2 5 4 -5 -6 6 -8 -9
leaf_value=-0.0013276976457617645 0.0035926619142550176 -0.014402742529185004 -0.00097282219286133295 0.00082633770037322156 0.002589424053712255 -0.010809070290471755 -0.0048891917447145238 0.0021995966690566398
leaf_weight=25 23 86 45 26 35 40 55 24
leaf_count=25 23 86 45 26 35 40 55 24
internal_value=-0.000410864 -0.000714286 0.000553435 0.00240196 -0.000625001 -0.00152439 -0.000819328 0.000624999
internal_weight=359 336 131 51 80 205 119 64
internal_count=359 336 131 51 80 205 119 64
is_linear=0
shrinkage=0.05


Tree=41
num_leaves=10
num_cat=0
split_feature=3 1 4 2 4 3 3 1 1
split_gain=0.248803 0.442027 0.120369 0.152381 0.101651 0.0543478 0.0687848 0.0433145 0.0290611
threshold=27.850000000000005 0.25000000000000011 27.850000000000005 -0.24999999999999994 27.250000000000004 27.650000000000002 27.350000000000005 0.68301270189221941 1.0000000180025095e-35
decision_type=2 2 2 2 2 2 2 2 2
left_child=4 2 3 -2 -1 6 7 -6 -4
right_child=1 -3 8 -5 5 -7 -8 -9 -10
leaf_value=-0.012256595059143593 0.00091041498358406805 0.0070563474784373307 -0.0048040197032918862 -0.0085831568777567768 -0.021723759202343831 -0.0017432409503441958 0.00022612520837361319 -0.00089555149103454708 -0.00015215655758253586
leaf_weight=101 20 34 39 28 23 23 33 36 22
leaf_count=101 20 34 39 28 23 23 33 36 22
internal_value=-0.000271588 0.00134615 -0.000206423 0.00166667 -0.00134259 -0.000326088 0.000217391 -0.000805085 -0.00168033
internal_weight=359 143 109 48 216 115 92 59 61
internal_count=359 143 109 48 216 115 92 59 61
is_linear=0
shrinkage=0.05


Tree=42
num_leaves=10
num_cat=0
split_feature=3 1 4 2 1 3 4 4 1
split_gain=0.248803 0.442027 0.120369 0.152381 0.0943433 0.202574 0.1 0.0327963 0.0290611
threshold=27.850000000000005 0.25000000000000011 27.850000000000005 -0.24999999999999994 1.0000000180025095e-35 27.150000000000002 27.950000000000003 27.550000000000004 1.0000000180025095e-35
decision_type=2 2 2 2 2 2 2 2 2
left_child=4 2 3 -2 -1 7 -7 -6 -4
right_child=1 -3 8 -5 5 6 -8 -9 -10
leaf_value=-0.011022804410900096 0.00086489423440492825 0.006703530104515543 -0.0045638187181272242 -0.008153999033869026 -0.016189380275253951 0.00068532543551475542 -0.0033159921700509662 -0.0016580216541648804 -0.00014454872970339446
leaf_weight=97 20 34 39 28 57 20 20 22 22
leaf_count=97 20 34 39 28 57 20 20 22 22
internal_value=-0.000271588 0.00134615 -0.000206423 0.00166667 -0.00134259 -0.00039916 0.0025 -0.00186709 -0.00168033
internal_weight=359 143 109 48 216 119 40 79 61
internal_count=359 143 109 48 216 119 40 79 61
is_linear=0
shrinkage=0.05


Tree=43
num_leaves=11
num_cat=0
split_feature=4 1 3 4 3 3 3 4 4 3
split_gain=0.206592 0.181481 0.181335 0.0673684 0.16 0.0568116 0.0496409 0.190981 0.0324675 0.025
threshold=27.050000000000004 1.0000000180025095e-35 27.150000000000002 28.150000000000002 27.750000000000004 28.250000000000004 28.050000000000004 27.750000000000004 28.050000000000004 26.650000000000002
decision_type=2 2 2 2 2 2 2 2 2 2
left_child=-1 6 9 4 -4 -5 8 -8 -2 -3
right_child=1 2 3 5 -6 -7 7 -9 -10 -11
leaf_value=-0.011334433563855342 -0.0061406902383468118 -0.01300542436188561 0.0010497827507854717 0.0040126568994618339 0.0020286505369496921 -0.00023912835190460617 0.0010501232755817534 -0.0044272980070701349 -0.0011913446781475949 -0.0061285993182461015
leaf_weight=89 55 20 20 27 25 23 26 32 22 20
leaf_count=89 55 20 20 27 25 23 26 32 22 20
internal_value=-0.000410864 0.000277777 0.00157407 0.00276316 0.00416667 0.0015 -0.00101852 8.62063e-05 -0.00185065 -0.00125
internal_weight=359 270 135 95 45 50 135 58 77 40
internal_count=359 270 135 95 45 50 135 58 77 40
is_linear=0
shrinkage=0.05


Tree=44
num_leaves=9
num_cat=0
split_feature=3 1 3 2 4 2 3 4
split_gain=0.212384 0.415573 0.151681 0.0787661 0.197855 0.0697224 0.031941 0.0289377
threshold=27.150000000000002 0.25000000000000011 27.850000000000005 0.6830127018922193 27.950000000000003 -0.24999999999999994 27.950000000000003 27.550000000000004
decision_type=2 2 2 2 2 2 2 2
left_child=7 3 -3 4 5 -2 -6 -1
right_child=1 2 -4 -5 6 -7 -8 -9
leaf_value=-0.016467786077185839 0.0005713605675377537 0.00061058464411855641 0.0062024408266360877 -0.027753486439685948 -0.00061006264123874426 -0.0028756663578190377 -0.00051601275598018963 -0.0022805750395553364
leaf_weight=79 33 36 34 42 22 35 52 26
leaf_count=79 33 36 34 42 22 35 52 26
internal_value=-0.000132313 0.000649606 0.00392857 -0.000597827 -3.52119e-05 0.00191176 -0.00182432 -0.00202381
internal_weight=359 254 70 184 142 68 74 105
internal_count=359 254 70 184 142 68 74 105
is_linear=0
shrinkage=0.05


Tree=45
num_leaves=9
num_cat=0
split_feature=3 1 3 2 4 2 3 4
split_gain=0.212384 0.415573 0.151681 0.0787661 0.197855 0.0697224 0.031941 0.0289377
threshold=27.150000000000002 0.25000000000000011 27.850000000000005 0.6830127018922193 27.950000000000003 -0.24999999999999994 27.950000000000003 27.550000000000004
decision_type=2 2 2 2 2 2 2 2
left_child=7 3 -3 4 5 -2 -6 -1
right_child=1 2 -4 -5 6 -7 -8 -9
leaf_value=-0.01564439677332654 0.00054279253916087963 0.00058005541191265611 0.0058923187853042146 -0.02636581211770167 -0.00057955950917675675 -0.0027318830399280379 -0.00049021211818116685 -0.002166546287577524
leaf_weight=79 33 36 34 42 22 35 52 26
leaf_count=79 33 36 34 42 22 35 52 26
internal_value=-0.000132313 0.000649606 0.00392857 -0.000597827 -3.52119e-05 0.00191176 -0.00182432 -0.00202381
internal_weight=359 254 70 184 142 68 74 105
internal_count=359 254 70 184 142 68 74 105
is_linear=0
shrinkage=0.05


Tree=46
num_leaves=10
num_cat=0
split_feature=3 1 4 3 2 4 2 3 4
split_gain=0.182259 0.294763 0.119048 0.1 0.0787661 0.197855 0.0697224 0.031941 0.0289377
threshold=27.150000000000002 0.25000000000000011 28.050000000000004 28.050000000000004 0.6830127018922193 27.950000000000003 -0.24999999999999994 27.950000000000003 27.550000000000004
decision_type=2 2 2 2 2 2 2 2 2
left_child=8 4 -3 -4 5 6 -2 -7 -1
right_child=1 2 3 -5 -6 7 -8 -9 -10
leaf_value=-0.014862176934660274 0.0005156529122028403 0.00012467301518428211 0.0010683503425312755 0.0069964134348581529 -0.025047521511816519 -0.00055058153371791304 -0.0025952888879316326 -0.00046570151227216632 -0.0020582189731987261
leaf_weight=79 33 30 20 20 42 22 35 52 26
leaf_count=79 33 30 20 20 42 22 35 52 26
internal_value=-0.000271588 0.000452755 0.00321429 0.005 -0.000597827 -3.52119e-05 0.00191176 -0.00182432 -0.00202381
internal_weight=359 254 70 40 184 142 68 74 105
internal_count=359 254 70 40 184 142 68 74 105
is_linear=0
shrinkage=0.05


Tree=47
num_leaves=10
num_cat=0
split_feature=3 1 4 3 2 4 2 3 4
split_gain=0.182259 0.294763 0.119048 0.1 0.0787661 0.197855 0.0697224 0.031941 0.0289377
threshold=27.150000000000002 0.25000000000000011 28.050000000000004 28.050000000000004 0.6830127018922193 27.950000000000003 -0.24999999999999994 27.950000000000003 27.550000000000004
decision_type=2 2 2 2 2 2 2 2 2
left_child=8 4 -3 -4 5 6 -2 -7 -1
right_child=1 2 3 -5 -6 7 -8 -9 -10
leaf_value=-0.014119068087927287 0.00048987026659271188 0.00011843936442514671 0.0010149328254046783 0.0066465927631152132 -0.023795145436225729 -0.00052305245703194037 -0.0024655244435350474 -0.00044241643665854477 -0.0019553080245387085
leaf_weight=79 33 30 20 20 42 22 35 52 26
leaf_count=79 33 30 20 20 42 22 35 52 26
internal_value=-0.000271588 0.000452755 0.00321429 0.005 -0.000597827 -3.52119e-05 0.00191176 -0.00182432 -0.00202381
internal_weight=359 254 70 40 184 142 68 74 105
internal_count=359 254 70 40 184 142 68 74 105
is_linear=0
shrinkage=0.05


Tree=48
num_leaves=10
num_cat=0
split_feature=3 1 4 3 2 4 2 3 4
split_gain=0.182259 0.294763 0.119048 0.1 0.0787661 0.197855 0.0697224 0.031941 0.0289377
threshold=27.150000000000002 0.25000000000000011 28.050000000000004 28.050000000000004 0.6830127018922193 27.950000000000003 -0.24999999999999994 27.950000000000003 27.550000000000004
decision_type=2 2 2 2 2 2 2 2 2
left_child=8 4 -3 -4 5 6 -2 -7 -1
right_child=1 2 3 -5 -6 7 -8 -9 -10
leaf_value=-0.013413114683531012 0.00046537675326315203 0.00011251739620392367 0.0009641861841343844 0.0063142631249594643 -0.0226053881644145 -0.00049689983418025761 -0.0023422482213582207 -0.00042029561482559538 -0.0018575426233118069
leaf_weight=79 33 30 20 20 42 22 35 52 26
leaf_count=79 33 30 20 20 42 22 35 52 26
internal_value=-0.000271588 0.000452755 0.00321429 0.005 -0.000597827 -3.52119e-05 0.00191176 -0.00182432 -0.00202381
internal_weight=359 254 70 40 184 142 68 74 105
internal_count=359 254 70 40 184 142 68 74 105
is_linear=0
shrinkage=0.05


Tree=49
num_leaves=10
num_cat=0
split_feature=3 1 4 3 2 4 2 3 4
split_gain=0.182259 0.294763 0.119048 0.1 0.0787661 0.197855 0.0697224 0.031941 0.0289377
threshold=27.150000000000002 0.25000000000000011 28.050000000000004 28.050000000000004 0.6830127018922193 27.950000000000003 -0.24999999999999994 27.950000000000003 27.550000000000004
decision_type=2 2 2 2 2 2 2 2 2
left_child=8 4 -3 -4 5 6 -2 -7 -1
right_child=1 2 3 -5 -6 7 -8 -9 -10
leaf_value=-0.012742458949354505 0.00044210791560007017 0.00010689152639373514 0.00091597687492765841 0.0059985499687114771 -0.021475118756193758 -0.00047205484247131874 -0.0022251358102903774 -0.00039928083408424906 -0.0017646654921461707
leaf_weight=79 33 30 20 20 42 22 35 52 26
leaf_count=79 33 30 20 20 42 22 35 52 26
internal_value=-0.000271588 0.000452755 0.00321429 0.005 -0.000597827 -3.52119e-05 0.00191176 -0.00182432 -0.00202381
internal_weight=359 254 70 40 184 142 68 74 105
internal_count=359 254 70 40 184 142 68 74 105
is_linear=0
shrinkage=0.05


Tree=50
num_leaves=10
num_cat=0
split_feature=3 1 4 3 2 4 2 3 4
split_gain=0.182259 0.294763 0.119048 0.1 0.0787661 0.197855 0.0697224 0.031941 0.0289377
threshold=27.150000000000002 0.25000000000000011 28.050000000000004 28.050000000000004 0.6830127018922193 27.950000000000003 -0.24999999999999994 27.950000000000003 27.550000000000004
decision_type=2 2 2 2 2 2 2 2 2
left_child=8 4 -3 -4 5 6 -2 -7 -1
right_child=1 2 3 -5 -6 7 -8 -9 -10
leaf_value=-0.012105336001886787 0.00042000251982008915 0.00010154695007409155 0.00087017803118123326 0.0056986224702758621 -0.020401362818384106 -0.00044845210034771138 -0.0021138790197757751 -0.00037931679238001445 -0.0016764322175388518
leaf_weight=79 33 30 20 20 42 22 35 52 26
leaf_count=79 33 30 20 20 42 22 35 52 26
internal_value=-0.000271588 0.000452755 0.00321429 0.005 -0.000597827 -3.52119e-05 0.00191176 -0.00182432 -0.00202381
internal_weight=359 254 70 40 184 142 68 74 105
internal_count=359 254 70 40 184 142 68 74 105
is_linear=0
shrinkage=0.05


Tree=51
num_leaves=10
num_cat=0
split_feature=3 1 4 3 2 4 2 3 4
split_gain=0.182259 0.294763 0.119048 0.1 0.0787661 0.197855 0.0697224 0.031941 0.0289377
threshold=27.150000000000002 0.25000000000000011 28.050000000000004 28.050000000000004 0.6830127018922193 27.950000000000003 -0.24999999999999994 27.950000000000003 27.550000000000004
decision_type=2 2 2 2 2 2 2 2 2
left_child=8 4 -3 -4 5 6 -2 -7 -1
right_child=1 2 3 -5 -6 7 -8 -9 -10
leaf_value=-0.011500069201792404 0.00039900239382904498 9.6469602570412391e-05 0.00082666912962214715 0.0054136913467620193 -0.019381294677464956 -0.00042602949533036431 -0.0020081850687869028 -0.00036035095276103598 -0.0015926106066618635
leaf_weight=79 33 30 20 20 42 22 35 52 26
leaf_count=79 33 30 20 20 42 22 35 52 26
internal_value=-0.000271588 0.000452755 0.00321429 0.005 -0.000597827 -3.52119e-05 0.00191176 -0.00182432 -0.00202381
internal_weight=359 254 70 40 184 142 68 74 105
internal_count=359 254 70 40 184 142 68 74 105
is_linear=0
shrinkage=0.05


Tree=52
num_leaves=11
num_cat=0
split_feature=3 4 3 3 3 2 4 1 3 4
split_gain=0.393614 0.132362 0.0717746 0.0976294 0.0720457 0.122295 0.137725 0.108989 0.0256211 0.0224561
threshold=28.750000000000004 26.850000000000005 28.450000000000003 27.150000000000002 27.650000000000002 -0.5 27.950000000000003 1.0000000180025095e-35 26.650000000000002 27.650000000000002
decision_type=2 2 2 2 2 2 2 2 2 2
left_child=1 -1 3 8 7 6 -6 -5 -3 -7
right_child=-2 2 -4 4 5 9 -8 -9 -10 -11
leaf_value=-0.0084752618323927758 0.00026750779677681586 -0.012753861942693547 -0.0020773132607405961 -0.00039501532658518958 0.0005768350655053488 -0.001020982661197609 -1.6851012132505841e-06 0.00051493132967702531 -0.0087580714334989981 -0.0032887742028865166
leaf_weight=70 23 23 27 36 20 25 41 29 33 32
leaf_count=70 23 23 27 36 20 25 41 29 33 32
internal_value=-0.000132313 -0.000565477 -5.63916e-05 0.000219665 0.000778688 4.23723e-05 0.00159836 0.00211538 -0.00160714 -0.00162281
internal_weight=359 336 266 239 183 118 61 65 56 57
internal_count=359 336 266 239 183 118 61 65 56 57
is_linear=0
shrinkage=0.05


Tree=53
num_leaves=11
num_cat=0
split_feature=4 4 3 3 1 3 3 2 4 2
split_gain=0.194986 0.128146 0.0688123 0.10775 0.114286 0.0669474 0.0399119 0.077979 0.0280112 0.0234848
threshold=26.850000000000005 28.750000000000004 27.150000000000002 27.650000000000002 1.0000000180025095e-35 28.050000000000004 28.550000000000004 -0.5 27.550000000000004 -0.5
decision_type=2 2 2 2 2 2 2 2 2 2
left_child=-1 2 8 4 -4 9 7 -7 -2 -5
right_child=1 -3 3 5 -6 6 -8 -9 -10 -11
leaf_value=-0.0080514987407732195 -0.01371083338634338 0.00027344957592684223 -0.00029453154789655571 -0.00083072445268786194 0.00049767082333058738 0.00058063235308590999 -6.3740421708847841e-06 -0.001234176828789591 -0.004869642386482043 -0.0035350238824328351
leaf_weight=70 30 23 35 24 28 38 31 28 21 31
leaf_count=70 30 23 35 24 28 38 31 28 21 31
internal_value=-0.000132313 0.000441176 0.000131578 0.000523255 0.0022619 -0.000197369 0.000592783 0.00128788 -0.00151961 -0.00159091
internal_weight=359 289 266 215 63 152 97 66 51 55
internal_count=359 289 266 215 63 152 97 66 51 55
is_linear=0
shrinkage=0.05


Tree=54
num_leaves=11
num_cat=0
split_feature=4 4 3 3 1 3 3 2 4 2
split_gain=0.194986 0.128146 0.0688123 0.10775 0.114286 0.0669474 0.0399119 0.077979 0.0280112 0.0234848
threshold=26.850000000000005 28.750000000000004 27.150000000000002 27.650000000000002 1.0000000180025095e-35 28.050000000000004 28.550000000000004 -0.5 27.550000000000004 -0.5
decision_type=2 2 2 2 2 2 2 2 2 2
left_child=-1 2 8 4 -4 9 7 -7 -2 -5
right_child=1 -3 3 5 -6 6 -8 -9 -10 -11
leaf_value=-0.0076489238037345617 -0.013025291717026155 0.00025977709713041964 -0.00027980497050168111 -0.00078918823005352009 0.00047278728216397807 0.00055160073543166963 -6.0553400622699411e-06 -0.0011724679873501792 -0.0046261602671579865 -0.0033582726883112633
leaf_weight=70 30 23 35 24 28 38 31 28 21 31
leaf_count=70 30 23 35 24 28 38 31 28 21 31
internal_value=-0.000132313 0.000441176 0.000131578 0.000523255 0.0022619 -0.000197369 0.000592783 0.00128788 -0.00151961 -0.00159091
internal_weight=359 289 266 215 63 152 97 66 51 55
internal_count=359 289 266 215 63 152 97 66 51 55
is_linear=0
shrinkage=0.05


Tree=55
num_leaves=10
num_cat=0
split_feature=4 1 3 4 2 4 3 1 2
split_gain=0.194986 0.163365 0.249633 0.0947488 0.171194 0.0512443 0.140006 0.041958 0.0368421
threshold=26.850000000000005 0.25000000000000011 27.050000000000004 27.950000000000003 -0.24999999999999994 28.450000000000003 27.750000000000004 -0.6830127018922193 -0.24999999999999994
decision_type=2 2 2 2 2 2 2 2 2
left_child=-1 3 -3 4 -2 6 -4 -6 -5
right_child=1 2 5 8 7 -7 -8 -9 -10
leaf_value=-0.0072664776135477928 0.0002857464927202579 -0.011280834224688424 0.00046612003833048916 -0.0002417385356068009 -0.0025254631648324202 0.0037364777744606417 -9.1239496140810786e-06 -0.018464557111720199 -0.0026894369808435261
leaf_weight=70 34 40 26 56 39 25 22 27 20
leaf_count=70 34 40 26 56 39 25 22 27 20
internal_value=-0.000132313 0.000441176 0.00192478 -0.000511364 0.000499999 0.00366438 0.00270833 -0.000984849 -0.00184211
internal_weight=359 289 113 176 100 73 48 66 76
internal_count=359 289 113 176 100 73 48 66 76
is_linear=0
shrinkage=0.05


Tree=56
num_leaves=10
num_cat=0
split_feature=3 1 2 4 2 4 4 3 4
split_gain=0.212384 0.254238 0.102878 0.132762 0.0697224 0.0459459 0.0349896 0.0478675 0.0289377
threshold=27.150000000000002 0.25000000000000011 0.6830127018922193 27.950000000000003 -0.24999999999999994 28.250000000000004 27.850000000000005 27.850000000000005 27.550000000000004
decision_type=2 2 2 2 2 2 2 2 2
left_child=8 2 3 4 -2 -5 -3 -8 -1
right_child=1 6 -4 5 -6 -7 7 -9 -10
leaf_value=-0.0086629778346306811 0.00028602190763220536 0.00024878427685821267 -0.016972909645744556 -0.00039722387458364676 -0.0015676226179889442 -4.3651582177764336e-05 0.00011292615715491023 0.0048821152093359178 -0.0011223191905682462
leaf_weight=79 33 24 42 34 35 40 21 25 26
leaf_count=79 33 24 42 34 35 40 21 25 26
internal_value=-0.000132313 0.000649606 -0.000326088 0.000316901 0.00191176 -0.00114865 0.00321429 0.00402174 -0.00202381
internal_weight=359 254 184 142 68 74 70 46 105
internal_count=359 254 184 142 68 74 70 46 105
is_linear=0
shrinkage=0.05


Tree=57
num_leaves=11
num_cat=0
split_feature=4 1 3 3 4 2 1 4 3 3
split_gain=0.2186 0.132461 0.192764 0.138945 0.0639357 0.132549 0.0509804 0.0290871 0.101933 0.0290611
threshold=26.850000000000005 1.0000000180025095e-35 27.050000000000004 27.750000000000004 27.850000000000005 -0.24999999999999994 -0.6830127018922193 28.550000000000004 28.250000000000004 27.850000000000005
decision_type=2 2 2 2 2 2 2 2 2 2
left_child=-1 4 -3 -4 5 -2 -7 8 -5 -6
right_child=1 2 3 7 9 6 -8 -9 -10 -11
leaf_value=-0.0064700048411387746 0.00038260214468060035 -0.010641825082604172 0.0003207353283070577 -4.8837768351411894e-05 -0.00029333063386820419 -0.0028659138025247327 -0.016594315284974969 -0.00017484611202087301 1.6459049926783827e-05 -0.0027351464967323579
leaf_weight=70 25 40 39 22 22 34 26 21 21 39
leaf_count=70 25 40 39 22 22 34 26 21 21 39
internal_value=6.96319e-06 0.000614186 0.0016958 0.00283981 -0.000445206 0.000441176 -0.000833334 0.00140625 0.00215116 -0.00168033
internal_weight=359 289 143 103 146 85 60 64 43 61
internal_count=359 289 143 103 146 85 60 64 43 61
is_linear=0
shrinkage=0.05


Tree=58
num_leaves=11
num_cat=0
split_feature=4 1 3 3 4 2 1 4 3 3
split_gain=0.2186 0.132461 0.192764 0.138945 0.0639357 0.132549 0.0509804 0.0290871 0.101933 0.0290611
threshold=26.850000000000005 1.0000000180025095e-35 27.050000000000004 27.750000000000004 27.850000000000005 -0.24999999999999994 -0.6830127018922193 28.550000000000004 28.250000000000004 27.850000000000005
decision_type=2 2 2 2 2 2 2 2 2 2
left_child=-1 4 -3 -4 5 -2 -7 8 -5 -6
right_child=1 2 3 7 9 6 -8 -9 -10 -11
leaf_value=-0.0061465045990819001 0.00036347203744664479 -0.010109733828473943 0.00030469856189161841 -4.6395879933897087e-05 -0.00027866410217471842 -0.0027226181123985666 -0.01576459952072615 -0.0001661038064198336 1.5636097430412839e-05 -0.0025983891718957351
leaf_weight=70 25 40 39 22 22 34 26 21 21 39
leaf_count=70 25 40 39 22 22 34 26 21 21 39
internal_value=6.96319e-06 0.000614186 0.0016958 0.00283981 -0.000445206 0.000441176 -0.000833334 0.00140625 0.00215116 -0.00168033
internal_weight=359 289 143 103 146 85 60 64 43 61
internal_count=359 289 143 103 146 85 60 64 43 61
is_linear=0
shrinkage=0.05


Tree=59
num_leaves=11
num_cat=0
split_feature=4 1 3 3 4 2 1 4 3 3
split_gain=0.2186 0.132461 0.192764 0.138945 0.0639357 0.132549 0.0509804 0.0290871 0.101933 0.0290611
threshold=26.850000000000005 1.0000000180025095e-35 27.050000000000004 27.750000000000004 27.850000000000005 -0.24999999999999994 -0.6830127018922193 28.550000000000004 28.250000000000004 27.850000000000005
decision_type=2 2 2 2 2 2 2 2 2 2
left_child=-1 4 -3 -4 5 -2 -7 8 -5 -6
right_child=1 2 3 7 9 6 -8 -9 -10 -11
leaf_value=-0.0058391793691277196 0.00034529843557436034 -0.00960424713705018 0.00028946363379707543 -4.4076085937178085e-05 -0.0002647308970659336 -0.0025864872067787089 -0.01497636954468988 -0.00015779861609876625 1.4854292558904808e-05 -0.0024684697133008724
leaf_weight=70 25 40 39 22 22 34 26 21 21 39
leaf_count=70 25 40 39 22 22 34 26 21 21 39
internal_value=6.96319e-06 0.000614186 0.0016958 0.00283981 -0.000445206 0.000441176 -0.000833334 0.00140625 0.00215116 -0.00168033
internal_weight=359 289 143 103 146 85 60 64 43 61
internal_count=359 289 143 103 146 85 60 64 43 61
is_linear=0
shrinkage=0.05


Tree=60
num_leaves=11
num_cat=0
split_feature=3 1 4 4 2 4 4 4 2 3
split_gain=0.212384 0.225892 0.16 0.299221 0.0876623 0.150661 0.0617589 0.0289377 0.0279107 0.02
threshold=27.150000000000002 1.0000000180025095e-35 28.150000000000002 27.850000000000005 0.6830127018922193 27.850000000000005 27.550000000000004 27.550000000000004 -0.24999999999999994 28.150000000000002
decision_type=2 2 2 2 2 2 2 2 2 2
left_child=7 4 3 -3 5 6 -2 -1 -7 -4
right_child=1 2 9 -5 -6 8 -8 -9 -10 -11
leaf_value=-0.0067940205375837453 -0.0019904716940100597 0.00012006372100431256 0.0026978359337459924 0.0004176341605548865 -0.013829699640547106 -0.0015609524630042528 0.00065372119394496557 -0.0011119481072397598 -0.0023327713985874898 -5.9563364987829577e-05
leaf_weight=79 32 28 25 22 42 35 23 26 22 25
leaf_count=79 32 28 25 22 42 35 23 26 22 25
internal_value=-0.000132313 0.000649606 0.0025 0.0045 -0.000551949 0.000178571 0.00204545 -0.00202381 -0.00162281 0.000499999
internal_weight=359 254 100 50 154 112 55 105 57 50
internal_count=359 254 100 50 154 112 55 105 57 50
is_linear=0
shrinkage=0.05


Tree=61
num_leaves=11
num_cat=0
split_feature=4 1 3 3 4 4 2 3 1 3
split_gain=0.194986 0.0927292 0.14972 0.213596 0.122523 0.0639357 0.132549 0.0562516 0.0509804 0.0290611
threshold=26.850000000000005 1.0000000180025095e-35 27.050000000000004 27.950000000000003 28.150000000000002 27.850000000000005 -0.24999999999999994 28.550000000000004 -0.6830127018922193 27.850000000000005
decision_type=2 2 2 2 2 2 2 2 2 2
left_child=-1 5 -3 4 -4 6 -2 -5 -8 -7
right_child=1 2 3 7 -6 9 8 -9 -10 -11
leaf_value=-0.0052075193737920883 0.00040111513179106652 -0.0090542323258440954 0.00037256255073644213 -2.446900766303376e-05 -0.00013225267502725371 -0.00017344672906238661 -0.0024435755826079176 6.1644938377163065e-06 -0.013536066085428053 -0.0022284076577064583
leaf_weight=70 25 40 26 34 22 22 34 21 26 39
leaf_count=70 25 40 26 34 22 22 34 21 26 39
internal_value=-0.000132313 0.000441176 0.00134615 0.00235437 0.00479167 -0.000445206 0.000441176 0.000227272 -0.000833334 -0.00168033
internal_weight=359 289 143 103 48 146 85 55 60 61
internal_count=359 289 143 103 48 146 85 55 60 61
is_linear=0
shrinkage=0.05


Tree=62
num_leaves=11
num_cat=0
split_feature=4 1 3 3 4 4 2 3 1 3
split_gain=0.194986 0.0927292 0.14972 0.213596 0.122523 0.0639357 0.132549 0.0562516 0.0509804 0.0290611
threshold=26.850000000000005 1.0000000180025095e-35 27.050000000000004 27.950000000000003 28.150000000000002 27.850000000000005 -0.24999999999999994 28.550000000000004 -0.6830127018922193 27.850000000000005
decision_type=2 2 2 2 2 2 2 2 2 2
left_child=-1 5 -3 4 -4 6 -2 -5 -8 -7
right_child=1 2 3 7 -6 9 8 -9 -10 -11
leaf_value=-0.0049471434051025576 0.00038105937520154561 -0.0086015207095518614 0.00035393442319958494 -2.3245557279897222e-05 -0.0001256400412759298 -0.00016477439260933384 -0.0023213968034775734 5.8562691459022878e-06 -0.012859262781156608 -0.002116987274821095
leaf_weight=70 25 40 26 34 22 22 34 21 26 39
leaf_count=70 25 40 26 34 22 22 34 21 26 39
internal_value=-0.000132313 0.000441176 0.00134615 0.00235437 0.00479167 -0.000445206 0.000441176 0.000227272 -0.000833334 -0.00168033
internal_weight=359 289 143 103 48 146 85 55 60 61
internal_count=359 289 143 103 48 146 85 55 60 61
is_linear=0
shrinkage=0.05


Tree=63
num_leaves=12
num_cat=0
split_feature=3 1 3 3 4 3 3 4 4 2 4
split_gain=0.214373 0.255822 0.131965 0.0736842 0.0912409 0.0524373 0.0916316 0.178801 0.03663 0.0217391 0.017193
threshold=27.050000000000004 0.25000000000000011 28.150000000000002 27.350000000000005 28.350000000000005 27.650000000000002 28.050000000000004 27.750000000000004 27.550000000000004 0.25000000000000017 27.950000000000003
decision_type=2 2 2 2 2 2 2 2 2 2 2
left_child=8 3 10 -2 5 -5 9 -8 -1 -7 -3
right_child=1 2 -4 4 -6 6 7 -9 -10 -11 -12
leaf_value=-0.0074755261586176118 -0.012877800975047607 0.00023458662584709125 -0.00013849341470511189 0.00072679956858333317 -0.0070073225240808168 -0.00046426925594980812 0.00056882879863022679 -0.00026252811729118408 -0.0083096144909429182 -0.0047975919981693938 0.0020425189610008537
leaf_weight=70 28 25 21 29 25 23 29 33 21 23 32
leaf_count=70 28 25 21 29 25 23 29 33 21 23 32
internal_value=0.000146239 0.000858208 0.00326923 -0.00013158 0.000277777 0.000784671 0.000277777 0.00153226 -0.00195055 -0.00141304 0.00451754
internal_weight=359 268 78 190 162 137 108 62 91 46 57
internal_count=359 268 78 190 162 137 108 62 91 46 57
is_linear=0
shrinkage=0.05


Tree=64
num_leaves=11
num_cat=0
split_feature=3 1 2 1 1 3 4 3 4 4
split_gain=0.316578 0.204325 0.172158 0.0967536 0.0789955 0.156137 0.119545 0.0925926 0.0508093 0.0289377
threshold=27.150000000000002 1.0000000180025095e-35 1.0000000180025095e-35 0.25000000000000011 -0.6830127018922193 27.650000000000002 27.850000000000005 28.150000000000002 28.450000000000003 27.550000000000004
decision_type=2 2 2 2 2 2 2 2 2 2
left_child=9 4 3 -3 5 -2 -7 -6 -5 -1
right_child=1 2 -4 8 7 6 -8 -9 -10 -11
leaf_value=-0.0055353049612842722 0.0011897119865157148 1.7446873501688331e-05 0.0020615385737566866 -5.7066197108932514e-05 -0.010689394918304548 0.0001639353646871769 -0.0018426794656278202 -0.00091266455198720214 0.0041253862961735804 -0.0011455820141127028
leaf_weight=79 20 30 21 29 45 34 28 27 20 26
leaf_count=79 20 30 21 29 45 34 28 27 20 26
internal_value=0.000285515 0.00124016 0.003 0.00193038 9.7402e-05 0.00115854 -8.06458e-05 -0.00111111 0.000561224 -0.00202381
internal_weight=359 254 100 79 154 82 62 72 49 105
internal_count=359 254 100 79 154 82 62 72 49 105
is_linear=0
shrinkage=0.05


Tree=65
num_leaves=12
num_cat=0
split_feature=3 1 3 2 3 4 2 4 3 4 3
split_gain=0.308322 0.194061 0.0960784 0.0768926 0.0794954 0.150136 0.193816 0.0696221 0.0396825 0.03663 0.0282609
threshold=27.050000000000004 1.0000000180025095e-35 27.650000000000002 0.6830127018922193 27.650000000000002 28.050000000000004 -0.24999999999999994 28.550000000000004 28.250000000000004 27.550000000000004 27.550000000000004
decision_type=2 2 2 2 2 2 2 2 2 2 2
left_child=9 3 -3 4 -2 6 -6 8 -4 -1 -5
right_child=1 2 7 10 5 -7 -8 -9 -10 -11 -12
leaf_value=-0.0068249846026224572 0.00086511686785140963 0.00013230917447030642 0.00026951654368594541 -0.014230603706228296 0.00042116332439622647 -0.007222335120658209 -0.0031178535691249181 -0.00084727880467478788 1.7817552006634354e-05 -0.0078368546656899969 -0.010393338928407596
leaf_weight=70 25 40 24 26 27 31 31 23 21 21 20
leaf_count=70 25 40 24 26 27 31 31 23 21 21 20
internal_value=0.000564066 0.00141791 0.00305555 0.000312499 0.00100877 0.000308988 0.00181034 0.00191176 0.00305555 -0.00195055 -0.00141304
internal_weight=359 268 108 160 114 89 58 68 45 91 46
internal_count=359 268 108 160 114 89 58 68 45 91 46
is_linear=0
shrinkage=0.05


Tree=66
num_leaves=13
num_cat=0
split_feature=1 3 3 3 3 4 3 3 4 3 3 4
split_gain=0.181016 0.203111 0.0960784 0.0934494 0.0777849 0.0696221 0.0641529 0.100432 0.0806861 0.0396825 0.029409 0.0287511
threshold=1.0000000180025095e-35 27.050000000000004 27.650000000000002 27.350000000000005 26.650000000000002 28.550000000000004 28.450000000000003 28.050000000000004 27.950000000000003 28.250000000000004 26.450000000000003 27.150000000000002
decision_type=2 2 2 2 2 2 2 2 2 2 2 2
left_child=3 4 -3 -1 10 9 7 8 11 -4 -2 -5
right_child=1 2 5 6 -6 -7 -8 -9 -10 -11 -12 -13
leaf_value=-0.011499430237647676 -0.030046933470863946 0.00012569371574672636 0.00025604071650167268 -0.0040183535751993548 -0.010654410829544327 -0.00080491486444109618 -0.014253527679741598 0.00064886944493862343 0.00031708071413013303 1.6926674406321875e-05 4.2412095399235739e-05 -0.0054788781609571933
leaf_weight=46 23 40 24 21 27 23 20 39 22 21 21 32
leaf_count=46 23 40 24 21 27 23 20 39 22 21 21 32
internal_value=0.000564066 0.00168994 0.00305555 -0.000555556 -0.000387325 0.00191176 0.00011194 0.000570175 -0.000500001 0.00305555 0.00090909 -0.0015566
internal_weight=359 179 108 180 71 68 134 114 75 45 44 53
internal_count=359 179 108 180 71 68 134 114 75 45 44 53
is_linear=0
shrinkage=0.05


Tree=67
num_leaves=13
num_cat=0
split_feature=2 4 2 4 3 3 1 4 1 1 4 2
split_gain=0.20474 0.289214 0.14438 0.103204 0.0867964 0.111882 0.0830769 0.0570937 0.121849 0.0446015 0.110678 0.0241779
threshold=0.6830127018922193 26.950000000000003 -0.9330127018922193 27.050000000000004 27.150000000000002 27.450000000000003 -0.93301270189221908 28.050000000000004 0.25000000000000011 0.25000000000000011 27.550000000000004 0.25000000000000017
decision_type=2 2 2 2 2 2 2 2 2 2 2 2
left_child=1 -1 -3 -2 11 -6 -7 9 -9 10 -8 -4
right_child=3 2 4 -5 5 6 7 8 -10 -11 -12 -13
leaf_value=0.001544759619389416 -0.012927372066836681 1.1603788473476033e-05 -0.0050070592468108438 -0.0029858388533213591 0.00052114223952448092 -0.0066765864255659522 -0.0036084552508579269 -0.0061136943456667134 0.0041254795043074808 6.7996447096635787e-05 0.00054311415783345706 -0.0042381990909399246
leaf_weight=21 62 30 25 27 22 20 20 29 34 20 27 22
leaf_count=21 62 30 25 27 22 20 20 29 34 20 27 22
internal_value=0.000703342 0.00138889 0.000913654 -0.00137641 0.000468036 0.000988371 0.000499999 0.000961538 -0.000119048 0.00197761 0.00281915 -0.00143617
internal_weight=359 270 249 89 219 172 150 130 63 67 47 47
internal_count=359 270 249 89 219 172 150 130 63 67 47 47
is_linear=0
shrinkage=0.05


Tree=68
num_leaves=13
num_cat=0
split_feature=3 1 3 2 3 4 2 4 1 3 3 4
split_gain=0.215941 0.194061 0.0960784 0.0768926 0.0794954 0.150136 0.193816 0.0696221 0.0449328 0.0396825 0.0282609 0.00111111
threshold=27.050000000000004 1.0000000180025095e-35 27.650000000000002 0.6830127018922193 27.650000000000002 28.050000000000004 -0.24999999999999994 28.550000000000004 0.68301270189221941 28.250000000000004 27.550000000000004 27.150000000000002
decision_type=2 2 2 2 2 2 2 2 2 2 2 2
left_child=8 3 -3 4 -2 6 -6 9 -1 -4 -5 -10
right_child=1 2 7 10 5 -7 -8 -9 11 -11 -12 -13
leaf_value=-0.027890212472312371 0.00089811515533056796 0.0002388841064874157 0.00024223554554024952 -0.012671787238815159 0.0004876553695306302 -0.0065879771195887296 -0.0026878738856003937 -0.00095037366390979174 3.8277724914593217e-05 1.5500151262444841e-05 -0.0094657554308921511 -0.007511701032885865
leaf_weight=46 25 40 24 26 27 31 31 23 20 21 20 25
leaf_count=46 25 40 24 26 27 31 31 23 20 21 20 25
internal_value=0.000703342 0.00141791 0.00305555 0.000312499 0.00100877 0.000308988 0.00181034 0.00191176 -0.0014011 0.00305555 -0.00141304 -0.000277778
internal_weight=359 268 108 160 114 89 58 68 91 45 46 45
internal_count=359 268 108 160 114 89 58 68 91 45 46 45
is_linear=0
shrinkage=0.05


Tree=69
num_leaves=13
num_cat=0
split_feature=3 1 2 4 3 2 3 4 2 1 3 4
split_gain=0.188304 0.134083 0.0925752 0.262088 0.145277 0.0768926 0.0794954 0.150136 0.193816 0.0449328 0.0282609 0.00111111
threshold=27.050000000000004 1.0000000180025095e-35 1.0000000180025095e-35 28.050000000000004 28.250000000000004 0.6830127018922193 27.650000000000002 28.050000000000004 -0.24999999999999994 0.68301270189221941 27.550000000000004 27.150000000000002
decision_type=2 2 2 2 2 2 2 2 2 2 2 2
left_child=9 5 3 -3 -5 6 -2 8 -8 -1 -7 -11
right_child=1 2 -4 4 -6 10 7 -9 -10 11 -12 -13
leaf_value=-0.026495701848696818 0.00085320939756406778 -7.1168148589385689e-05 0.0015038260301038953 0.0023279914517669214 -0.00014495209130355768 -0.012038197876874379 0.00046327260105418047 -0.0062585782636092177 -0.0025534801913202946 3.636383866884082e-05 -0.0089924676593475666 -0.0071361159812415647
leaf_weight=46 25 25 26 29 28 26 27 31 31 20 20 25
leaf_count=46 25 25 26 29 28 26 27 31 31 20 20 25
internal_value=0.000564066 0.00123134 0.00259259 0.00176829 0.00364035 0.000312499 0.00100877 0.000308988 0.00181034 -0.0014011 -0.00141304 -0.000277778
internal_weight=359 268 108 82 57 160 114 89 58 91 46 45
internal_count=359 268 108 82 57 160 114 89 58 91 46 45
is_linear=0
shrinkage=0.05


Tree=70
num_leaves=14
num_cat=0
split_feature=4 3 3 1 4 3 4 3 1 3 4 1 1
split_gain=0.169957 0.128929 0.0931449 0.119848 0.0599475 0.148959 0.0975093 0.0688212 0.0768345 0.0333333 0.0263425 0.0188153 0.0153068
threshold=26.850000000000005 27.050000000000004 27.450000000000003 -0.93301270189221908 28.550000000000004 28.050000000000004 28.050000000000004 28.250000000000004 1.0000000180025095e-35 26.550000000000004 27.550000000000004 1.0000000180025095e-35 -0.5
decision_type=2 2 2 2 2 2 2 2 2 2 2 2 2
left_child=9 10 11 -4 5 6 12 -7 -9 -1 -2 -3 -5
right_child=1 2 3 4 -6 7 -8 8 -10 -11 -12 -13 -14
leaf_value=-4.0684357647271992e-05 -0.0069571566392763063 0.00044537280030287402 -0.0065188491725604375 -0.0017348424457374275 -0.002095190759874169 0.0054590460942158144 -0.004280484261851421 -0.00058630242297166802 2.1972748264461144e-05 -0.005739522634321992 -0.0064643885966123998 0.00011942033659340833 0.00038905432249940891
leaf_weight=21 26 20 22 31 28 25 23 31 21 49 21 21 20
leaf_count=21 26 20 22 31 28 25 23 31 21 49 21 21 20
internal_value=0.00042479 0.000960207 0.00142562 0.000982586 0.00141061 0.00180464 0.000202702 0.00334416 0.00230769 -0.00178571 -0.00143617 0.00359756 0.00142157
internal_weight=359 289 242 201 179 151 74 77 52 70 47 41 51
internal_count=359 289 242 201 179 151 74 77 52 70 47 41 51
is_linear=0
shrinkage=0.05


Tree=71
num_leaves=12
num_cat=0
split_feature=3 1 2 4 4 2 3 1 1 3 4
split_gain=0.162559 0.11034 0.102564 0.134732 0.0964912 0.170707 0.0649285 0.0616541 0.0449328 0.0409091 0.00111111
threshold=27.050000000000004 0.25000000000000011 1.0000000180025095e-35 28.450000000000003 28.350000000000005 -0.24999999999999994 28.050000000000004 -0.6830127018922193 0.68301270189221941 28.250000000000004 27.150000000000002
decision_type=2 2 2 2 2 2 2 2 2 2 2
left_child=8 4 3 -3 5 9 7 -7 -1 -2 -10
right_child=1 2 -4 -5 -6 6 -8 -9 10 -11 -12
leaf_value=-0.024955176255859159 0.00028363277326882318 -0.00023218011141659751 0.0014352741316150798 0.003503958478325598 -0.006245236284557385 0.00015451817152307816 0.0012384038688100433 -0.010880985538760456 3.6579864617792249e-05 0.00029779756968255073 -0.0064511630648730403
leaf_weight=46 36 30 26 22 25 35 23 41 20 30 25
leaf_count=46 36 30 26 22 25 35 23 41 20 30 25
internal_value=0.00042479 0.00104478 0.0026282 0.00134615 0.000394736 0.000833333 -0.000479799 -0.00118421 -0.0014011 0.00280303 -0.000277778
internal_weight=359 268 78 52 190 165 99 76 91 66 45
internal_count=359 268 78 52 190 165 99 76 91 66 45
is_linear=0
shrinkage=0.05


Tree=72
num_leaves=13
num_cat=0
split_feature=3 1 2 2 3 1 4 4 3 1 4 3
split_gain=0.19948 0.0820181 0.245578 0.0704262 0.0751864 0.0610843 0.105984 0.0508093 0.0403361 0.0754148 0.0266351 0.0261905
threshold=27.150000000000002 0.25000000000000011 1.0000000180025095e-35 0.6830127018922193 28.450000000000003 -0.93301270189221908 28.050000000000004 28.450000000000003 26.650000000000002 0.68301270189221941 27.550000000000004 27.550000000000004
decision_type=2 2 2 2 2 2 2 2 2 2 2 2
left_child=8 3 7 4 5 -2 10 -3 9 -1 -7 -5
right_child=1 2 -4 11 -6 6 -8 -9 -10 -11 -12 -13
leaf_value=-0.028072265921256626 -0.0019539994085377259 -0.00020168757306816216 0.0017638098041218673 -0.01042063686286536 -0.00028361934269717645 0.00059119812672314372 -7.4460497565201092e-05 0.0036288220455274606 -0.0040161456670752306 0.0010878778585983186 0.00046841939994551174 -0.0079603358533033991
leaf_weight=25 25 29 21 22 34 20 36 20 54 26 27 20
leaf_count=25 25 29 21 22 34 20 36 20 54 26 27 20
internal_value=0.000285515 0.00104331 0.0025 0.00048913 0.00102113 0.00166667 0.00231928 0.000561224 -0.00154762 -0.000539216 0.00388298 -0.00130952
internal_weight=359 254 70 184 142 108 83 49 105 51 47 42
internal_count=359 254 70 184 142 108 83 49 105 51 47 42
is_linear=0
shrinkage=0.05


Tree=73
num_leaves=12
num_cat=0
split_feature=2 4 4 3 3 3 4 1 4 3 3
split_gain=0.264305 0.107733 0.112527 0.0897339 0.157802 0.0862684 0.157008 0.26208 0.083004 0.0577201 0.038764
threshold=0.6830127018922193 26.950000000000003 27.550000000000004 27.450000000000003 27.750000000000004 27.950000000000003 28.550000000000004 1.0000000180025095e-35 28.050000000000004 27.450000000000003 27.550000000000004
decision_type=2 2 2 2 2 2 2 2 2 2 2
left_child=1 -1 9 -4 -5 -6 7 8 -7 -3 -2
right_child=10 2 3 4 5 6 -8 -9 -10 -11 -12
leaf_value=0.0014096009152814873 -0.010485507846040291 -0.0058655660680258289 0.00038830046084317152 -0.001054090578359603 0.00025484292671310835 0.00039121871789518539 -0.0049457213278199666 0.0023962161704722371 -0.0023292227410003498 -5.8954851825982965e-05 -0.0075623190606381539
leaf_weight=21 69 30 41 27 21 23 23 30 21 33 20
leaf_count=21 69 30 41 27 21 23 23 30 21 33 20
internal_value=0.00042479 0.0012037 0.000913654 0.00153226 0.000948275 0.00173729 0.00110825 0.00222973 -0.000227273 -0.000912699 -0.0019382
internal_weight=359 270 249 186 145 118 97 74 44 63 89
internal_count=359 270 249 186 145 118 97 74 44 63 89
is_linear=0
shrinkage=0.05


Tree=74
num_leaves=12
num_cat=0
split_feature=3 1 3 3 2 4 3 1 1 4 4
split_gain=0.162559 0.217762 0.131965 0.118846 0.131675 0.074888 0.0496714 0.0726942 0.0449328 0.017193 0.00111111
threshold=27.050000000000004 0.25000000000000011 28.150000000000002 28.450000000000003 -0.24999999999999994 28.050000000000004 27.950000000000003 -0.6830127018922193 0.68301270189221941 27.950000000000003 27.150000000000002
decision_type=2 2 2 2 2 2 2 2 2 2 2
left_child=8 3 9 4 5 -2 7 -6 -1 -3 -10
right_child=1 2 -4 -5 6 -7 -8 -9 10 -11 -12
leaf_value=-0.022681632618997655 0.00038656198152690739 0.00040868283596902171 -0.0004152576662846198 -0.0004107611520417016 -0.0031048895945047202 -0.00094858973961610958 0.0017395245790056283 -0.0097222646870266001 -9.0123067306990308e-05 0.0015566645754750931 -0.0060888347645801401
leaf_weight=46 29 25 21 35 31 30 25 40 20 32 25
leaf_count=46 29 25 21 35 31 30 25 40 20 32 25
internal_value=0.00042479 0.00104478 0.00326923 0.000131578 0.000725806 0.00258475 -0.000416667 -0.00109155 -0.0014011 0.00451754 -0.000277778
internal_weight=359 268 78 190 155 59 96 71 91 57 45
internal_count=359 268 78 190 155 59 96 71 91 57 45
is_linear=0
shrinkage=0.05


Tree=75
num_leaves=12
num_cat=0
split_feature=4 3 3 4 3 4 2 2 3 4 3
split_gain=0.129822 0.108098 0.145405 0.0888889 0.0555435 0.183652 0.0827719 0.182149 0.0333333 0.0263425 0.0234783
threshold=26.850000000000005 28.450000000000003 27.050000000000004 28.350000000000005 27.450000000000003 28.050000000000004 -0.5 0.25000000000000017 26.550000000000004 27.550000000000004 28.750000000000004
decision_type=2 2 2 2 2 2 2 2 2 2 2
left_child=8 2 9 4 -4 6 -6 -8 -1 -2 -3
right_child=1 10 3 -5 5 -7 7 -9 -10 -11 -12
leaf_value=-0.00016084586167096649 -0.0041720834378653629 -0.0017180311742399251 0.00043052743615228876 0.0018392779786693065 0.000343156996924578 -0.0028248186044351406 -0.00050215404350553619 0.0021240223412275177 -0.0046055552165169683 -0.0055879781304365925 -0.00011115721991048485
leaf_weight=21 26 27 37 30 31 33 25 36 49 21 23
leaf_count=21 26 27 37 30 31 33 25 36 49 21 23
internal_value=0.000146239 0.000614186 0.00105648 0.00166667 0.0012037 0.000699999 0.00184783 0.000778688 -0.00178571 -0.00143617 -0.0015
internal_weight=359 289 239 192 162 125 92 61 70 47 50
internal_count=359 289 239 192 162 125 92 61 70 47 50
is_linear=0
shrinkage=0.05


Tree=76
num_leaves=13
num_cat=0
split_feature=3 3 1 2 1 4 3 1 3 1 4 3
split_gain=0.230943 0.186975 0.114754 0.138236 0.0899777 0.103974 0.064254 0.0495601 0.0403361 0.0754148 0.0256098 0.0234783
threshold=27.150000000000002 28.450000000000003 0.25000000000000011 0.6830127018922193 -0.93301270189221908 28.250000000000004 27.750000000000004 -0.5 26.650000000000002 0.68301270189221941 27.050000000000004 28.750000000000004
decision_type=2 2 2 2 2 2 2 2 2 2 2 2
left_child=8 2 3 4 -2 7 -4 -6 9 -1 -5 -3
right_child=1 11 6 10 5 -7 -8 -9 -10 -11 -12 -13
leaf_value=-0.02500225330885826 -0.0019377289007804493 -0.0016321296155279936 0.0003272151348498392 -0.0089117168491413459 0.00052870469493523334 -0.0031232375085675436 0.002791966442830667 0.00019295164929699116 -0.00302281331727183 0.00097555236635322746 -0.0073773804536178189 -0.00010559935891487623
leaf_weight=25 25 27 32 21 40 21 23 22 54 26 20 23
leaf_count=25 25 27 32 21 40 21 23 22 54 26 20 23
internal_value=0.00042479 0.00124016 0.00191176 0.00119127 0.00212963 0.00292169 0.00386364 0.00395161 -0.00154762 -0.000539216 -0.00128049 -0.0015
internal_weight=359 254 204 149 108 83 55 62 105 51 41 50
internal_count=359 254 204 149 108 83 55 62 105 51 41 50
is_linear=0
shrinkage=0.05


Tree=77
num_leaves=12
num_cat=0
split_feature=3 3 1 1 2 4 4 4 3 3 1
split_gain=0.187354 0.104139 0.0837912 0.0712751 0.120714 0.0544444 0.0505157 0.0480981 0.112037 0.0334075 0.0803515
threshold=27.250000000000004 28.550000000000004 0.68301270189221941 1.0000000180025095e-35 -0.24999999999999994 27.850000000000005 27.550000000000004 27.750000000000004 27.850000000000005 27.950000000000003 -0.6830127018922193
decision_type=2 2 2 2 2 2 2 2 2 2 2
left_child=2 3 -1 4 5 -2 -4 -5 -9 10 -6
right_child=1 -3 6 7 9 -7 -8 8 -10 -11 -12
leaf_value=-0.013244926207024603 0.00042199093311491212 -0.00030925924196994982 -0.0017665226519463552 0.00050379385380561973 -0.001174300750842564 -0.00019505428753864107 9.5470806658582655e-05 -0.0004937627927784847 0.0017408079487471633 0.001766632194891234 -0.0085303829504656641
leaf_weight=61 20 38 34 20 27 25 22 24 30 26 32
leaf_count=61 20 38 34 20 27 25 22 24 30 26 32
internal_value=0.00042479 0.00121901 -0.00121795 0.00166667 0.000961538 0.00305555 0.000178571 0.0029054 0.00212963 -0.000147059 -0.000805085
internal_weight=359 242 117 204 130 45 56 74 54 85 59
internal_count=359 242 117 204 130 45 56 74 54 85 59
is_linear=0
shrinkage=0.05


Tree=78
num_leaves=12
num_cat=0
split_feature=3 3 1 4 2 1 4 4 3 1 3
split_gain=0.156932 0.159118 0.090892 0.1238 0.10694 0.0837912 0.0689655 0.0505157 0.0373204 0.0803515 0.0234783
threshold=27.250000000000004 28.450000000000003 0.25000000000000011 27.950000000000003 -0.24999999999999994 0.68301270189221941 28.050000000000004 27.550000000000004 27.950000000000003 -0.6830127018922193 28.750000000000004
decision_type=2 2 2 2 2 2 2 2 2 2 2
left_child=5 2 4 -4 6 -1 -2 -7 9 -6 -3
right_child=1 10 3 -5 8 7 -8 -9 -10 -11 -12
leaf_value=-0.012582679896673303 0.00032159723242911276 -0.0015658112122840713 0.00039909380612147865 0.00067614972534517067 -0.0011155857133003852 -0.0016781965193491167 -0.00074340257348422712 9.0697266325613028e-05 0.0017973121615977837 -0.0081038638029424341 -8.4856428870683191e-05
leaf_weight=61 29 27 23 27 27 34 29 22 25 32 23
leaf_count=61 29 27 23 27 27 34 29 22 25 32 23
internal_value=0.000285515 0.0010124 0.00166667 0.0035 0.00102113 -0.00121795 0.00267241 0.000178571 -0.000119048 -0.000805085 -0.0015
internal_weight=359 242 192 50 142 117 58 56 84 59 50
internal_count=359 242 192 50 142 117 58 56 84 59 50
is_linear=0
shrinkage=0.05


Tree=79
num_leaves=12
num_cat=0
split_feature=3 3 1 1 2 4 4 4 3 3 1
split_gain=0.187354 0.104139 0.0837912 0.0712751 0.120714 0.0544444 0.0505157 0.0480981 0.112037 0.0334075 0.0803515
threshold=27.250000000000004 28.550000000000004 0.68301270189221941 1.0000000180025095e-35 -0.24999999999999994 27.850000000000005 27.550000000000004 27.750000000000004 27.850000000000005 27.950000000000003 -0.6830127018922193
decision_type=2 2 2 2 2 2 2 2 2 2 2
left_child=2 3 -1 4 5 -2 -4 -5 -9 10 -6
right_child=1 -3 6 7 9 -7 -8 8 -10 -11 -12
leaf_value=-0.011953545901839594 0.0003848115248376796 -0.00022661284747229216 -0.001594286693381607 0.00045864947080932143 -0.00105980642763536 -0.0002013814347831747 8.6162403009283015e-05 -0.00047716700161646902 0.0016519000163037559 0.0015884349770667512 -0.0076986706127952324
leaf_weight=61 20 38 34 20 27 25 22 24 30 26 32
leaf_count=61 20 38 34 20 27 25 22 24 30 26 32
internal_value=0.00042479 0.00121901 -0.00121795 0.00166667 0.000961538 0.00305555 0.000178571 0.0029054 0.00212963 -0.000147059 -0.000805085
internal_weight=359 242 117 204 130 45 56 74 54 85 59
internal_count=359 242 117 204 130 45 56 74 54 85 59
is_linear=0
shrinkage=0.05


Tree=80
num_leaves=13
num_cat=0
split_feature=2 3 3 1 4 3 2 4 3 1 3 3
split_gain=0.122935 0.129521 0.153279 0.1258 0.110902 0.0906214 0.0853707 0.074888 0.0303435 0.0535606 0.029409 0.0234783
threshold=0.93301270189221952 28.450000000000003 27.050000000000004 0.25000000000000011 27.950000000000003 26.650000000000002 -0.24999999999999994 28.050000000000004 27.950000000000003 -0.6830127018922193 26.450000000000003 28.750000000000004
decision_type=2 2 2 2 2 2 2 2 2 2 2 2
left_child=1 2 5 6 -5 10 7 -4 9 -8 -1 -3
right_child=-2 11 3 4 -6 -7 8 -9 -10 -11 -12 -13
leaf_value=-0.025358634838311467 -0.0079156243938841558 -0.0015043677313645149 0.00029800066354137298 0.00035858047534619757 0.0010368555868700714 -0.0048780276240181315 -0.0025808982405902559 -0.00085384380688919334 0.0016280248046645161 -0.0080988765184302185 5.0373959723863227e-05 -6.9282965053485372e-05
leaf_weight=23 30 27 29 29 34 35 31 30 25 22 21 23
leaf_count=23 30 27 29 29 34 35 31 30 25 22 21 23
internal_value=0.000564066 0.000843464 0.00126344 0.002 0.00384921 -0.000601266 0.00114963 0.00258475 6.4102e-05 -0.000613208 0.00090909 -0.0015
internal_weight=359 329 279 200 63 79 137 59 78 53 44 50
internal_count=359 329 279 200 63 79 137 59 78 53 44 50
is_linear=0
shrinkage=0.05


Tree=81
num_leaves=14
num_cat=0
split_feature=2 3 1 2 4 3 2 4 3 4 3 4 1
split_gain=0.134365 0.106021 0.14195 0.230769 0.134732 0.130994 0.110473 0.105195 0.0906214 0.04 0.029409 0.0268801 0.0321429
threshold=0.93301270189221952 27.050000000000004 0.25000000000000011 1.0000000180025095e-35 28.450000000000003 28.550000000000004 -0.24999999999999994 28.250000000000004 26.650000000000002 27.750000000000004 26.450000000000003 27.650000000000002 -0.6830127018922193
decision_type=2 2 2 2 2 2 2 2 2 2 2 2 2
left_child=1 8 5 4 -4 6 7 9 10 -3 -1 12 -8
right_child=-2 2 3 -5 -6 -7 11 -9 -10 -11 -12 -13 -14
leaf_value=-0.024090703096395851 -0.0075198431741899212 0.0003506709154186818 -0.00026394587481515084 0.0011780448705576666 0.0026127034492937568 -0.0039111212832277252 0.0023629129581175835 -0.0028386655049275392 -0.0046341262428173024 0.00016706913613852211 4.7855261737687461e-05 -0.00087252714211180085 -0.0069605853712005079
leaf_weight=23 30 20 30 26 22 27 21 21 35 25 21 34 24
leaf_count=23 30 20 30 26 22 27 21 21 35 25 21 34 24
internal_value=0.000703342 0.00099544 0.0015 0.00326923 0.00134615 0.000697674 0.0012931 0.00280303 -0.000601266 0.00416667 0.00090909 3.1645e-05 0.000833333
internal_weight=359 329 250 78 52 172 145 66 79 45 44 79 45
internal_count=359 329 250 78 52 172 145 66 79 45 44 79 45
is_linear=0
shrinkage=0.05


Tree=82
num_leaves=14
num_cat=0
split_feature=3 1 4 1 3 3 2 4 4 3 1 4 3
split_gain=0.185188 0.171812 0.176433 0.0974317 0.108932 0.0867749 0.134076 0.0581732 0.248571 0.0373204 0.0803515 0.0289943 0.0285529
threshold=27.250000000000004 1.0000000180025095e-35 28.550000000000004 0.25000000000000011 27.750000000000004 28.450000000000003 -0.24999999999999994 26.850000000000005 26.550000000000004 27.950000000000003 -0.6830127018922193 27.950000000000003 26.650000000000002
decision_type=2 2 2 2 2 2 2 2 2 2 2 2 2
left_child=7 5 3 -3 -5 6 11 8 -1 10 -8 -2 -9
right_child=1 2 -4 4 -6 -7 9 12 -10 -11 -12 -13 -14
leaf_value=-0.010532318283697415 0.00033109477588106424 0.00016617356926117025 -0.0010454307774785414 0.00026677213934612223 0.0027086032130237614 -0.012496259530633201 -0.00088267648876226676 -0.0055529603969269063 0.00024750016007431237 0.0018337721636100734 -0.0065504238245690004 7.8699951869723721e-05 -0.00083333913009146906
leaf_weight=29 21 20 24 24 27 20 27 23 21 25 32 22 44
leaf_count=29 21 20 24 24 27 20 27 23 21 25 32 22 44
internal_value=0.000842618 0.00163223 0.00328947 0.00454225 0.00338235 0.000561224 0.00104331 -0.000790599 0.000499999 -0.000119048 -0.000805085 0.00331395 -0.00175373
internal_weight=359 242 95 71 51 147 127 117 50 84 59 43 67
internal_count=359 242 95 71 51 147 127 117 50 84 59 43 67
is_linear=0
shrinkage=0.05


Tree=83
num_leaves=14
num_cat=0
split_feature=3 1 4 1 3 3 2 4 4 3 1 4 3
split_gain=0.185188 0.171812 0.176433 0.0974317 0.108932 0.0867749 0.134076 0.0581732 0.248571 0.0373204 0.0803515 0.0289943 0.0285529
threshold=27.250000000000004 1.0000000180025095e-35 28.550000000000004 0.25000000000000011 27.750000000000004 28.450000000000003 -0.24999999999999994 26.850000000000005 26.550000000000004 27.950000000000003 -0.6830127018922193 27.950000000000003 26.650000000000002
decision_type=2 2 2 2 2 2 2 2 2 2 2 2 2
left_child=7 5 3 -3 -5 6 11 8 -1 10 -8 -2 -9
right_child=1 2 -4 4 -6 -7 9 12 -10 -11 -12 -13 -14
leaf_value=-0.010005702369512535 0.00031454003708703633 0.00015786489079806101 -0.0009931592386046809 0.00025343353237872759 0.0025731730523726216 -0.011871446554101594 -0.00083854266432422493 -0.0052753123770805958 0.00023512515207056137 0.0017420835554295333 -0.0062229026333406358 7.476495427617718e-05 -0.00079167217358682004
leaf_weight=29 21 20 24 24 27 20 27 23 21 25 32 22 44
leaf_count=29 21 20 24 24 27 20 27 23 21 25 32 22 44
internal_value=0.000842618 0.00163223 0.00328947 0.00454225 0.00338235 0.000561224 0.00104331 -0.000790599 0.000499999 -0.000119048 -0.000805085 0.00331395 -0.00175373
internal_weight=359 242 95 71 51 147 127 117 50 84 59 43 67
internal_count=359 242 95 71 51 147 127 117 50 84 59 43 67
is_linear=0
shrinkage=0.05


Tree=84
num_leaves=14
num_cat=0
split_feature=2 3 1 2 4 4 3 2 4 3 3 1 3
split_gain=0.146303 0.127164 0.139756 0.225766 0.262088 0.305351 0.0935119 0.109376 0.148485 0.0906214 0.0303435 0.0535606 0.029409
threshold=0.93301270189221952 27.050000000000004 1.0000000180025095e-35 1.0000000180025095e-35 28.050000000000004 28.550000000000004 28.450000000000003 -0.24999999999999994 28.050000000000004 26.650000000000002 27.950000000000003 -0.6830127018922193 26.450000000000003
decision_type=2 2 2 2 2 2 2 2 2 2 2 2 2
left_child=1 9 6 4 -4 -6 7 8 -3 12 11 -9 -1
right_child=-2 2 3 -5 5 -7 -8 10 -10 -11 -12 -13 -14
leaf_value=-0.021859266908915667 -0.0065051846925850525 0.00027930845975904624 -0.00022060395533117863 0.0010931323434435105 0.00018506500098180274 -8.7679613846643192e-05 -0.011277874226396433 -0.0024030520741606708 -0.0018299756016405455 -0.0043211693654924589 0.0016549793776579756 -0.0067072371010532972 2.1331483629195305e-05
leaf_weight=23 30 24 25 26 32 25 20 31 20 35 25 22 21
leaf_count=23 30 24 25 26 32 25 20 31 20 35 25 22 21
internal_value=0.000842618 0.00114742 0.0017 0.00305555 0.00176829 0.00364035 0.000669013 0.00118852 0.00318182 -0.000601266 6.4102e-05 -0.000613208 0.00090909
internal_weight=359 329 250 108 82 57 142 122 44 79 78 53 44
internal_count=359 329 250 108 82 57 142 122 44 79 78 53 44
is_linear=0
shrinkage=0.05


Tree=85
num_leaves=12
num_cat=0
split_feature=4 4 1 3 3 2 4 2 3 3 1
split_gain=0.16932 0.0824155 0.131063 0.148444 0.156863 0.111432 0.189671 0.0871978 0.114683 0.0658611 0.0480519
threshold=26.550000000000004 28.550000000000004 1.0000000180025095e-35 27.050000000000004 26.650000000000002 1.0000000180025095e-35 28.050000000000004 -0.24999999999999994 27.950000000000003 28.050000000000004 -0.6830127018922193
decision_type=2 2 2 2 2 2 2 2 2 2 2
left_child=-1 2 7 4 -4 6 -5 8 -2 10 -9
right_child=1 -3 3 5 -6 -7 -8 9 -10 -11 -12
leaf_value=-0.0078905239077447214 0.00017425156007745449 -0.00030476406904407158 0.0035733770458252498 -0.00020957375756464137 -0.0059452540539873255 0.0013099961391278524 0.00017581175093276776 -0.00046004350868386683 -0.0012790048638044093 0.0017614680666654366 -0.0056089831041856719
leaf_weight=37 20 37 27 25 24 21 32 40 36 23 37
leaf_count=37 20 37 27 25 24 21 32 40 36 23 37
internal_value=0.000703342 0.00107143 0.00135965 0.00253876 0.000441176 0.00391026 0.00276316 0.000384615 0.00196429 -0.000500001 -0.0012013
internal_weight=359 322 285 129 51 78 57 156 56 100 77
internal_count=359 322 285 129 51 78 57 156 56 100 77
is_linear=0
shrinkage=0.05


Tree=86
num_leaves=13
num_cat=0
split_feature=3 1 2 4 3 2 3 4 2 1 3 4
split_gain=0.245469 0.265095 0.177211 0.119161 0.145277 0.0768926 0.0794954 0.150136 0.193816 0.0449328 0.0282609 0.00111111
threshold=27.050000000000004 1.0000000180025095e-35 1.0000000180025095e-35 28.050000000000004 28.250000000000004 0.6830127018922193 27.650000000000002 28.050000000000004 -0.24999999999999994 0.68301270189221941 27.550000000000004 27.150000000000002
decision_type=2 2 2 2 2 2 2 2 2 2 2 2
left_child=9 5 3 -3 -5 6 -2 8 -8 -1 -7 -11
right_child=1 2 -4 4 -6 10 7 -9 -10 11 -12 -13
leaf_value=-0.017100244230344955 0.0015119158410973766 -0.00019909506968635105 0.0010249663187333513 0.0017296658850788204 9.2616644111462821e-06 -0.0055742422924153654 0.00028798980859318362 -0.0055520840021239023 -0.0029993631490006865 9.5389505861297882e-05 -0.0049815982142860649 -0.0049133895836959117
leaf_weight=46 25 25 26 29 28 26 27 31 31 20 20 25
leaf_count=46 25 25 26 29 28 26 27 31 31 20 20 25
internal_value=0.000842618 0.00160448 0.00351852 0.00237805 0.00364035 0.000312499 0.00100877 0.000308988 0.00181034 -0.0014011 -0.00141304 -0.000277778
internal_weight=359 268 108 82 57 160 114 89 58 91 46 45
internal_count=359 268 108 82 57 160 114 89 58 91 46 45
is_linear=0
shrinkage=0.05


Tree=87
num_leaves=11
num_cat=0
split_feature=3 1 4 3 4 2 3 3 1 1
split_gain=0.162176 0.0793399 0.231007 0.244348 0.155902 0.141843 0.3 0.0685732 0.0552632 0.0506173
threshold=26.950000000000003 1.0000000180025095e-35 27.450000000000003 27.650000000000002 28.550000000000004 -0.24999999999999994 27.950000000000003 28.050000000000004 -0.6830127018922193 0.68301270189221941
decision_type=2 2 2 2 2 2 2 2 2 2
left_child=9 5 -3 -4 -5 6 -2 8 -7 -1
right_child=1 2 3 4 -6 7 -8 -9 -10 -11
leaf_value=-0.019516765156565443 0.00046100429398071021 0.00031512818287513536 -8.2590185815427126e-05 0.00012879128073886372 -0.00073749894240244358 1.8450051236088005e-05 -0.0014244559769743829 0.0019125633727269898 -0.0051343542123175254 9.0618820385150742e-05
leaf_weight=41 20 21 30 41 23 38 40 23 42 40
leaf_count=41 20 21 30 41 23 38 40 23 42 40
internal_value=0.000703342 0.00127698 0.00228261 0.0012234 0.00296875 0.000567484 0.0025 -0.000558253 -0.00125 -0.00126543
internal_weight=359 278 115 94 64 163 60 103 80 81
internal_count=359 278 115 94 64 163 60 103 80 81
is_linear=0
shrinkage=0.05


Tree=88
num_leaves=13
num_cat=0
split_feature=3 4 1 1 2 3 1 3 3 1 2 4
split_gain=0.162176 0.0796265 0.224224 0.169314 0.0624992 0.079679 0.0506173 0.0499025 0.0344048 0.0865596 0.0327586 0.00285011
threshold=26.950000000000003 27.450000000000003 0.25000000000000011 -0.6830127018922193 -0.68301270189221952 28.550000000000004 0.68301270189221941 28.050000000000004 27.450000000000003 0.68301270189221941 0.25000000000000017 27.150000000000002
decision_type=2 2 2 2 2 2 2 2 2 2 2 2
left_child=6 2 3 -2 5 7 -1 -3 -6 10 -10 -5
right_child=1 4 -4 11 8 -7 -8 -9 9 -11 -12 -13
leaf_value=-0.018540926898737098 0.00056847435183763619 6.7451027092069014e-05 0.00029937177373131642 -0.0047617073950357624 0.00033360301870016552 -9.4541588936515185e-05 8.6087879365974451e-05 0.00030061782789103436 -0.0016378070822041899 -1.6359797110485291e-05 0.00042601382432989058 -0.010705261804563691
leaf_weight=41 20 27 21 29 25 26 40 30 38 22 20 20
leaf_count=41 20 27 21 29 25 26 40 30 38 22 20 20
internal_value=0.000703342 0.00127698 0.0025 0.00112319 0.000691489 0.00171687 -0.00126543 0.00276316 -0.000119048 -0.000625001 -0.00163793 -0.000459184
internal_weight=359 278 90 69 188 83 81 57 105 80 58 49
internal_count=359 278 90 69 188 83 81 57 105 80 58 49
is_linear=0
shrinkage=0.05


Tree=89
num_leaves=13
num_cat=0
split_feature=3 4 1 1 1 4 4 3 3 4 3 4
split_gain=0.162176 0.0796265 0.224224 0.169314 0.0506173 0.0449907 0.0670415 0.042729 0.142857 0.0714286 0.021645 0.00285011
threshold=26.950000000000003 27.450000000000003 0.25000000000000011 -0.6830127018922193 0.68301270189221941 28.550000000000004 28.250000000000004 27.650000000000002 27.950000000000003 27.750000000000004 28.250000000000004 27.150000000000002
decision_type=2 2 2 2 2 2 2 2 2 2 2 2
left_child=4 2 3 -2 -1 6 7 -3 -9 -10 -11 -5
right_child=1 5 -4 11 -6 -7 -8 8 9 10 -12 -13
leaf_value=-0.017613880553800244 0.0005400506342457728 -7.4551227452271927e-05 0.00028440318504472398 -0.0045236220252839118 8.1783485397605993e-05 -0.00023063320850838891 0.00043289131838772767 7.7236673024736789e-05 0.00043144007500654644 -0.0012684509649777951 -2.7137487602775598e-06 -0.010169998714335514
leaf_weight=41 20 34 21 29 40 33 37 21 21 20 22 20
leaf_count=41 20 34 21 29 40 33 37 21 21 20 22 20
internal_value=0.000703342 0.00127698 0.0025 0.00112319 -0.00126543 0.000691489 0.00104839 0.000466101 0.00107143 -0.000119048 -0.00130952 -0.000459184
internal_weight=359 278 90 69 81 188 155 118 84 63 42 49
internal_count=359 278 90 69 81 188 155 118 84 63 42 49
is_linear=0
shrinkage=0.05


Tree=90
num_leaves=13
num_cat=0
split_feature=3 4 1 1 1 4 4 3 3 4 3 4
split_gain=0.162176 0.0796265 0.224224 0.169314 0.0506173 0.0449907 0.0670415 0.042729 0.142857 0.0714286 0.021645 0.00285011
threshold=26.950000000000003 27.450000000000003 0.25000000000000011 -0.6830127018922193 0.68301270189221941 28.550000000000004 28.250000000000004 27.650000000000002 27.950000000000003 27.750000000000004 28.250000000000004 27.150000000000002
decision_type=2 2 2 2 2 2 2 2 2 2 2 2
left_child=4 2 3 -2 -1 6 7 -3 -9 -10 -11 -5
right_child=1 5 -4 11 -6 -7 -8 8 9 10 -12 -13
leaf_value=-0.016733186526110267 0.00051304810253346717 -7.082366607963685e-05 0.00027018302579247001 -0.0042974409240196451 7.7694311127655965e-05 -0.00021910154808289889 0.0004112467524684178 7.3374839373472657e-05 0.00040986807125613232 -0.0012050284167288582 -2.5780613222810367e-06 -0.0096614987786187365
leaf_weight=41 20 34 21 29 40 33 37 21 21 20 22 20
leaf_count=41 20 34 21 29 40 33 37 21 21 20 22 20
internal_value=0.000703342 0.00127698 0.0025 0.00112319 -0.00126543 0.000691489 0.00104839 0.000466101 0.00107143 -0.000119048 -0.00130952 -0.000459184
internal_weight=359 278 90 69 81 188 155 118 84 63 42 49
internal_count=359 278 90 69 81 188 155 118 84 63 42 49
is_linear=0
shrinkage=0.05


Tree=91
num_leaves=12
num_cat=0
split_feature=3 3 3 1 4 4 3 2 2 4 4
split_gain=0.220469 0.0934728 0.093913 0.0677258 0.0795269 0.108899 0.0761513 0.132353 0.0554299 0.0632992 0.034824
threshold=27.250000000000004 28.450000000000003 28.750000000000004 -0.93301270189221908 28.050000000000004 28.350000000000005 27.550000000000004 0.25000000000000017 0.6830127018922193 27.750000000000004 27.150000000000002
decision_type=2 2 2 2 2 2 2 2 2 2 2
left_child=8 3 -3 -2 6 -6 -5 -8 9 10 -1
right_child=1 2 -4 4 5 -7 7 -9 -10 -11 -12
leaf_value=-0.00040571261104084322 -0.0022434385482275536 -0.001225363969400807 4.487043519231103e-05 0.00011363225999269931 -0.00092985133862500682 0.0020478531938142317 0.0002804279225599357 0.0028011324230443179 -0.0094692836728052718 -0.00030056265001572537 0.00039113220752923179
leaf_weight=25 25 27 23 39 34 26 34 34 49 22 21
leaf_count=25 25 27 23 39 34 26 34 34 49 22 21
internal_value=0.000564066 0.00142562 -0.000500001 0.00192708 0.00229042 0.000833333 0.00310748 0.00411765 -0.00121795 -0.000294118 0.000760869
internal_weight=359 242 50 192 167 60 107 68 117 68 46
internal_count=359 242 50 192 167 60 107 68 117 68 46
is_linear=0
shrinkage=0.05


Tree=92
num_leaves=12
num_cat=0
split_feature=3 4 3 4 4 3 3 1 2 3 1
split_gain=0.185933 0.0995387 0.124046 0.134304 0.150509 0.125511 0.0835179 0.0955476 0.0942308 0.0815686 0.0506173
threshold=26.950000000000003 28.350000000000005 28.350000000000005 27.450000000000003 26.750000000000004 27.350000000000005 28.150000000000002 1.0000000180025095e-35 -0.24999999999999994 28.150000000000002 0.68301270189221941
decision_type=2 2 2 2 2 2 2 2 2 2 2
left_child=10 2 3 4 -2 -6 7 8 -5 -3 -1
right_child=1 9 -4 6 5 -7 -8 -9 -10 -11 -12
leaf_value=-0.015423063016164563 -0.0044637841224347977 0.0020739482593206135 0.00016924682394501816 0.00010320522276623334 0.00047823686087123649 0.0012338337478638483 -0.0065034369242706908 -6.423749283401622e-05 0.00071002305079397726 -0.0012252449494232144 9.4095226123362696e-05
leaf_weight=41 24 25 35 20 20 39 22 35 32 26 40
leaf_count=41 24 25 35 20 20 39 22 35 32 26 40
internal_value=0.000842618 0.00145683 0.00190529 0.00140625 0.00292169 0.00427966 0.000252293 0.000948275 0.00230769 -0.000539216 -0.00126543
internal_weight=359 278 227 192 83 59 109 87 52 51 81
internal_count=359 278 227 192 83 59 109 87 52 51 81
is_linear=0
shrinkage=0.05


Tree=93
num_leaves=14
num_cat=0
split_feature=3 1 4 3 4 2 1 3 3 4 4 4 4
split_gain=0.218119 0.131642 0.176433 0.120819 0.152444 0.124227 0.0974317 0.108932 0.0730987 0.045066 0.0762463 0.0371736 0.0952381
threshold=27.250000000000004 1.0000000180025095e-35 28.550000000000004 27.450000000000003 28.050000000000004 -0.24999999999999994 0.25000000000000011 27.750000000000004 28.050000000000004 26.550000000000004 27.750000000000004 27.250000000000004 26.850000000000005
decision_type=2 2 2 2 2 2 2 2 2 2 2 2 2
left_child=9 3 6 -2 5 -5 -3 -8 -7 -1 11 12 -11
right_child=1 2 -4 4 -6 8 7 -9 -10 10 -12 -13 -14
leaf_value=-0.0059241189387468675 0.00065830651666900141 5.1943283949110753e-05 -0.00079467161123771858 0.00016369965638607983 -0.0064780159447168075 -0.0040935646809132772 0.00039883321922516989 0.0023029162062191762 0.0040007156352847061 0.00044306208996486713 -0.0011895749866894356 0.00099875055386974138 -0.0047444396271193387
leaf_weight=29 22 20 24 31 35 39 24 27 20 21 26 20 21
leaf_count=29 22 20 24 31 35 39 24 27 20 21 26 20 21
